{"learner":{"attributes":{"best_iteration":"68","best_score":"0.6941526952162066"},"feature_names":["total_events","total_sessions","active_days","median_session_length","events_per_session","median_session_duration_minutes","mean_session_duration_minutes","unique_event_types","unique_surfaces","unique_tools","unique_path_groups","cross_surface_transitions","transition_entropy","returned_after_first_session","credits_used_sum","credit_amount_sum","productive_event_count","code_related_event_count","value_signal_event_count","low_value_event_count","notebook_action_count","canvas_action_count","tool_action_count","collaboration_action_count","deployment_value_action_count","mode_browser_code","mode_device_type_code","mode_os_code","mode_country_code_code","dominant_surface_group_code","dominant_action_group_code"],"feature_types":["int","int","int","float","float","float","float","int","int","int","int","int","float","int","float","float","int","int","int","int","int","int","int","int","int","int","int","int","int","int","int"],"gradient_booster":{"model":{"cats":{"enc":[],"feature_segments":[],"sorted_idx":[]},"gbtree_model_param":{"num_parallel_tree":"1","num_trees":"169"},"iteration_indptr":[0,1,2,3,4,5,6,7,8,9,10,11,12,13,14,15,16,17,18,19,20,21,22,23,24,25,26,27,28,29,30,31,32,33,34,35,36,37,38,39,40,41,42,43,44,45,46,47,48,49,50,51,52,53,54,55,56,57,58,59,60,61,62,63,64,65,66,67,68,69,70,71,72,73,74,75,76,77,78,79,80,81,82,83,84,85,86,87,88,89,90,91,92,93,94,95,96,97,98,99,100,101,102,103,104,105,106,107,108,109,110,111,112,113,114,115,116,117,118,119,120,121,122,123,124,125,126,127,128,129,130,131,132,133,134,135,136,137,138,139,140,141,142,143,144,145,146,147,148,149,150,151,152,153,154,155,156,157,158,159,160,161,162,163,164,165,166,167,168,169],"tree_info":[0,0,0,0,0,0,0,0,0,0,0,0,0,0,0,0,0,0,0,0,0,0,0,0,0,0,0,0,0,0,0,0,0,0,0,0,0,0,0,0,0,0,0,0,0,0,0,0,0,0,0,0,0,0,0,0,0,0,0,0,0,0,0,0,0,0,0,0,0,0,0,0,0,0,0,0,0,0,0,0,0,0,0,0,0,0,0,0,0,0,0,0,0,0,0,0,0,0,0,0,0,0,0,0,0,0,0,0,0,0,0,0,0,0,0,0,0,0,0,0,0,0,0,0,0,0,0,0,0,0,0,0,0,0,0,0,0,0,0,0,0,0,0,0,0,0,0,0,0,0,0,0,0,0,0,0,0,0,0,0,0,0,0,0,0,0,0,0,0],"trees":[{"base_weights":[-3.3603102E-2,-1.8441787E0,1.1798466E0,-1.897948E0,-1.1806248E0,1.0537683E0,1.4889814E0,-9.919193E-2,-1.6592063E0,-2.2524504E-2,-8.888889E-2,1.1015515E0,-2.6202688E-2,1.5434189E0,4.416896E-2,-3.5743143E-2,-8.9132234E-2,7.047199E-1,1.208009E0,4.8309088E-2,1.5973407E0,1.1008717E0,3.3646977E-1,1.4076147E0,1.0515841E0,1.1255573E0,8.657495E-2,7.484485E-2,2.6510878E-2,-2.0305289E-2,3.4982745E-2,7.835336E-2,4.9125392E-2,4.0188547E-2,7.388052E-2,7.484485E-2,1.1686253E-2],"categories":[],"categories_nodes":[],"categories_segments":[],"categories_sizes":[],"default_left":[0,0,0,0,0,0,0,0,0,0,0,0,0,0,0,0,0,0,0,0,0,0,0,0,0,0,0,0,0,0,0,0,0,0,0,0,0],"id":0,"left_children":[1,3,5,7,9,11,13,-1,15,-1,-1,17,-1,19,-1,-1,-1,21,23,-1,25,27,29,31,33,35,-1,-1,-1,-1,-1,-1,-1,-1,-1,-1,-1],"loss_changes":[1.046893E3,4.5809326E0,9.551086E0,3.0145264E-1,6.601486E0,1.611444E1,1.281601E0,0E0,4.842041E0,0E0,0E0,7.6123962E0,0E0,7.0632935E-1,0E0,0E0,0E0,6.16193E0,3.4083252E0,0E0,2.1380157E0,3.9819183E0,6.931074E0,2.9229584E0,8.496933E0,5.3310013E0,0E0,0E0,0E0,0E0,0E0,0E0,0E0,0E0,0E0,0E0,0E0],"parents":[2147483647,0,0,1,1,2,2,3,3,4,4,5,5,6,6,8,8,11,11,13,13,17,17,18,18,20,20,21,21,22,22,23,23,24,24,25,25],"right_children":[2,4,6,8,10,12,14,-1,16,-1,-1,18,-1,20,-1,-1,-1,22,24,-1,26,28,30,32,34,36,-1,-1,-1,-1,-1,-1,-1,-1,-1,-1,-1],"split_conditions":[3E0,5.6666665E0,9.8E1,3E0,2E0,8.4E1,3E0,-9.919193E-2,4E0,-2.2524504E-2,-8.888889E-2,3.5E1,-2.6202688E-2,1.3E1,4.416896E-2,-3.5743143E-2,-8.9132234E-2,2.1E1,3E0,4.8309088E-2,6.927292E0,9E0,1.249E-1,5.6E1,6.3333335E0,1.1351522E0,8.657495E-2,7.484485E-2,2.6510878E-2,-2.0305289E-2,3.4982745E-2,7.835336E-2,4.9125392E-2,4.0188547E-2,7.388052E-2,7.484485E-2,1.1686253E-2],"split_indices":[1,4,0,25,1,0,8,0,25,0,0,28,0,7,0,0,0,28,10,0,5,7,5,28,4,15,0,0,0,0,0,0,0,0,0,0,0],"split_type":[0,0,0,0,0,0,0,0,0,0,0,0,0,0,0,0,0,0,0,0,0,0,0,0,0,0,0,0,0,0,0,0,0,0,0,0,0],"sum_hessian":[4.7451068E2,1.901982E2,2.843125E2,1.742204E2,1.5977796E1,2.0508058E2,7.92319E1,1.2275E2,5.1470394E1,7.977796E0,8E0,1.9934538E2,5.735197E0,7.127631E1,7.955592E0,6.735197E0,4.47352E1,4.3777958E1,1.5556743E2,7.705592E0,6.357072E1,2.0131578E1,2.3646381E1,6.4835526E1,9.07319E1,1.6153782E1,4.741694E1,1.0925986E1,9.205592E0,7.727796E0,1.5918585E1,4.5196545E1,1.9638979E1,5.9189144E1,3.1542763E1,1.0925986E1,5.227796E0],"tree_param":{"num_deleted":"0","num_feature":"31","num_nodes":"37","size_leaf_vector":"1"}},{"base_weights":[-4.840041E-2,-1.7364893E0,1.103238E0,-1.7663482E0,-1.268053E0,9.2288464E-1,1.4341394E0,-8.925279E-2,-4.998836E-2,-1.7339492E-2,-8.635527E-2,9.732965E-1,-2.7307624E-2,1.1419077E0,1.6035634E0,1.2602701E0,8.316169E-1,1.3081945E0,5.244724E-3,4.1210517E-2,8.3203584E-2,3.0555202E-2,1.3648282E0,1.8008804E-1,9.966299E-1,8.191904E-2,1.0366453E0,7.62628E-2,4.6252925E-2,4.3205436E-2,-3.950993E-2,4.0773876E-2,7.0688754E-2,2.685669E-2,6.799601E-2],"categories":[],"categories_nodes":[],"categories_segments":[],"categories_sizes":[],"default_left":[0,0,0,0,0,0,0,0,0,0,0,0,0,0,0,0,0,0,0,0,0,0,0,0,0,0,0,0,0,0,0,0,0,0,0],"id":1,"left_children":[1,3,5,7,9,11,13,-1,-1,-1,-1,15,-1,17,19,21,23,25,-1,-1,-1,-1,27,29,31,-1,33,-1,-1,-1,-1,-1,-1,-1,-1],"loss_changes":[9.134097E2,4.2510986E-1,1.5346466E1,7.475586E-1,5.728554E0,1.41280365E1,2.958191E0,0E0,0E0,0E0,0E0,6.183548E0,0E0,6.5834045E0,1.399353E0,3.0245209E0,1.2938492E1,1.3052902E0,0E0,0E0,0E0,0E0,1.9861603E0,1.7858185E1,6.187439E0,0E0,2.677597E0,0E0,0E0,0E0,0E0,0E0,0E0,0E0,0E0],"parents":[2147483647,0,0,1,1,2,2,3,3,4,4,5,5,6,6,11,11,13,13,14,14,15,15,16,16,17,17,22,22,23,23,24,24,26,26],"right_children":[2,4,6,8,10,12,14,-1,-1,-1,-1,16,-1,18,20,22,24,26,-1,-1,-1,-1,28,30,32,-1,34,-1,-1,-1,-1,-1,-1,-1,-1],"split_conditions":[3E0,6.346525E0,6.9136667E0,2E0,9.130009E0,5.999533E0,4E0,-8.925279E-2,-4.998836E-2,-1.7339492E-2,-8.635527E-2,5E0,-2.7307624E-2,8E0,2.5337417E0,8.5E-4,1.2625E-1,2.4130666E0,5.244724E-3,4.1210517E-2,8.3203584E-2,3.0555202E-2,3E0,2E-4,4.121928E0,8.191904E-2,3.2666668E1,7.62628E-2,4.6252925E-2,4.3205436E-2,-3.950993E-2,4.0773876E-2,7.0688754E-2,2.685669E-2,6.799601E-2],"split_indices":[1,5,6,2,5,6,11,0,0,0,0,7,0,9,5,6,5,5,0,0,0,0,10,5,12,0,4,0,0,0,0,0,0,0,0],"split_type":[0,0,0,0,0,0,0,0,0,0,0,0,0,0,0,0,0,0,0,0,0,0,0,0,0,0,0,0,0,0,0,0,0,0,0],"sum_hessian":[4.6785907E2,1.8953215E2,2.7832693E2,1.7557028E2,1.3961875E1,1.8259499E2,9.573194E1,1.700908E2,5.4794645E0,5.2271185E0,8.734756E0,1.7686316E2,5.731821E0,3.797337E1,5.7758568E1,5.5847744E1,1.2101542E2,3.2500378E1,5.4729924E0,5.2146616E0,5.2543907E1,8.69681E0,4.7150936E1,2.4878359E1,9.613706E1,1.2395184E1,2.0105192E1,3.2739334E1,1.4411601E1,1.4655872E1,1.02224865E1,6.908891E1,2.7048143E1,8.9451065E0,1.1160087E1],"tree_param":{"num_deleted":"0","num_feature":"31","num_nodes":"35","size_leaf_vector":"1"}},{"base_weights":[3.3069152E-2,-1.5953807E0,1.0917758E0,-1.6437767E0,-8.281741E-1,9.745422E-1,1.4435486E0,-1.3970298E0,-8.5241236E-2,-1.6040495E-2,-5.6049395E-2,1.0010068E0,-7.5069244E-4,1.5476779E0,7.8759027E-1,-1.5441984E0,-2.6897803E-2,9.265929E-1,1.3760313E0,3.8028833E-2,8.044716E-2,3.3979088E-3,7.059161E-2,-8.128753E-2,-4.8476677E-2,9.628137E-1,-4.0825685E-3,7.459803E-2,3.2997493E-2,5.0612E-2,1.2349358E-2],"categories":[],"categories_nodes":[],"categories_segments":[],"categories_sizes":[],"default_left":[0,0,0,0,0,0,0,0,0,0,0,0,0,0,0,0,0,0,0,0,0,0,0,0,0,0,0,0,0,0,0],"id":2,"left_children":[1,3,5,7,9,11,13,15,-1,-1,-1,17,-1,19,21,23,-1,25,27,-1,-1,-1,-1,-1,-1,29,-1,-1,-1,-1,-1],"loss_changes":[8.2226587E2,5.615906E0,1.0511963E1,2.6571655E-1,1.5963497E0,5.772476E0,3.5735931E0,4.276634E0,0E0,0E0,0E0,4.7008667E0,0E0,1.646225E0,5.136803E0,1.5052795E-2,0E0,6.715805E0,1.7874985E0,0E0,0E0,0E0,0E0,0E0,0E0,5.9599457E0,0E0,0E0,0E0,0E0,0E0],"parents":[2147483647,0,0,1,1,2,2,3,3,4,4,5,5,6,6,7,7,11,11,13,13,14,14,15,15,17,17,18,18,25,25],"right_children":[2,4,6,8,10,12,14,16,-1,-1,-1,18,-1,20,22,24,-1,26,28,-1,-1,-1,-1,-1,-1,30,-1,-1,-1,-1,-1],"split_conditions":[3E0,6.346525E0,1.22E2,4E0,1.0693767E1,1.3002883E1,8E0,7.219281E-1,-8.5241236E-2,-1.6040495E-2,-5.6049395E-2,6.9136667E0,-7.5069244E-4,2E0,1.6990042E1,1E1,-2.6897803E-2,5.6969943E0,1E0,3.8028833E-2,8.044716E-2,3.3979088E-3,7.059161E-2,-8.128753E-2,-4.8476677E-2,1.6E1,-4.0825685E-3,7.459803E-2,3.2997493E-2,5.0612E-2,1.2349358E-2],"split_indices":[1,5,0,27,5,5,9,12,0,0,0,6,0,8,5,25,0,6,18,0,0,0,0,0,0,17,0,0,0,0,0],"split_type":[0,0,0,0,0,0,0,0,0,0,0,0,0,0,0,0,0,0,0,0,0,0,0,0,0,0,0,0,0,0,0],"sum_hessian":[4.7492807E2,1.8691609E2,2.8801196E2,1.7475017E2,1.2165932E1,2.1884798E2,6.9163994E1,3.939708E1,1.3535309E2,5.2188087E0,6.9471226E0,2.1313629E2,5.7116804E0,5.8515587E1,1.0648404E1,3.295416E1,6.4429193E0,1.8074321E2,3.2393085E1,5.194468E0,5.332112E1,5.4613605E0,5.187044E0,2.7257002E1,5.697156E0,1.7451874E2,6.22446E0,2.694702E1,5.4460673E0,1.6285956E2,1.1659182E1],"tree_param":{"num_deleted":"0","num_feature":"31","num_nodes":"31","size_leaf_vector":"1"}},{"base_weights":[-3.4977924E-2,-1.6215776E0,1.0682839E0,-8.243876E-2,-1.1913999E0,9.337467E-1,1.3147897E0,-1.8659106E-2,-8.082035E-2,9.745329E-1,-7.849926E-3,1.4030411E0,8.764708E-1,8.770101E-1,1.165224E0,1.2384591E0,8.271568E-2,9.648073E-4,1.2260168E0,1.1186621E0,6.316961E-1,6.1695385E-1,1.3575324E0,1.3986392E0,9.1130614E-1,7.334735E-2,3.548833E-2,6.0614485E-2,5.7076984E-3,5.0131302E-2,1.55744925E-2,4.479585E-2,2.0023256E-3,7.252085E-2,3.1470586E-2,7.619809E-2,3.838454E-2,4.6414225E-3,5.9890747E-2],"categories":[],"categories_nodes":[],"categories_segments":[],"categories_sizes":[],"default_left":[0,0,0,0,0,0,0,0,0,0,0,0,0,0,0,0,0,0,0,0,0,0,0,0,0,0,0,0,0,0,0,0,0,0,0,0,0,0,0],"id":3,"left_children":[1,3,5,-1,7,9,11,-1,-1,13,-1,15,17,19,21,23,-1,-1,25,27,29,31,33,35,37,-1,-1,-1,-1,-1,-1,-1,-1,-1,-1,-1,-1,-1,-1],"loss_changes":[8.256693E2,2.9907227E-1,8.000122E0,0E0,4.650835E0,8.314362E0,2.4756927E0,0E0,0E0,2.2693634E0,0E0,1.1798859E0,5.584902E0,6.4744797E0,5.15567E0,1.4059448E0,0E0,0E0,6.1065865E-1,5.4789505E0,7.100483E0,2.6345854E0,1.8767776E0,1.3974648E0,4.504488E0,0E0,0E0,0E0,0E0,0E0,0E0,0E0,0E0,0E0,0E0,0E0,0E0,0E0,0E0],"parents":[2147483647,0,0,1,1,2,2,4,4,5,5,6,6,9,9,11,11,12,12,13,13,14,14,15,15,18,18,19,19,20,20,21,21,22,22,23,23,24,24],"right_children":[2,4,6,-1,8,10,12,-1,-1,14,-1,16,18,20,22,24,-1,-1,26,28,30,32,34,36,38,-1,-1,-1,-1,-1,-1,-1,-1,-1,-1,-1,-1,-1,-1],"split_conditions":[3E0,6.47205E0,6.9136667E0,-8.243876E-2,9.297267E0,5.8796E0,6.8E1,-1.8659106E-2,-8.082035E-2,2E0,-7.849926E-3,1.75E1,2E0,3E0,4E0,4.3281803E0,8.271568E-2,9.648073E-4,2.38E2,2.797929E0,6E0,2.947703E0,7.1E1,8E1,1.09E2,7.334735E-2,3.548833E-2,6.0614485E-2,5.7076984E-3,5.0131302E-2,1.55744925E-2,4.479585E-2,2.0023256E-3,7.252085E-2,3.1470586E-2,7.619809E-2,3.838454E-2,4.6414225E-3,5.9890747E-2],"split_indices":[1,6,6,0,6,6,28,0,0,11,0,3,19,10,17,12,0,0,16,6,16,12,28,22,16,0,0,0,0,0,0,0,0,0,0,0,0,0,0],"split_type":[0,0,0,0,0,0,0,0,0,0,0,0,0,0,0,0,0,0,0,0,0,0,0,0,0,0,0,0,0,0,0,0,0,0,0,0,0,0,0],"sum_hessian":[4.6970416E2,1.9245912E2,2.7724506E2,1.7835036E2,1.41087675E1,1.8245378E2,9.479126E1,5.4652343E0,8.643533E0,1.7597992E2,6.4738717E0,7.7072464E1,1.7718796E1,1.2013819E2,5.5841717E1,5.015198E1,2.6920486E1,5.438189E0,1.2280607E1,5.8727364E1,6.141083E1,1.5593343E1,4.0248375E1,3.1469002E1,1.868298E1,7.1174154E0,5.1631923E0,5.3531025E1,5.196338E0,2.7464506E1,3.3946327E1,1.0138104E1,5.455238E0,3.481509E1,5.4332848E0,2.5073423E1,6.3955774E0,5.1875525E0,1.3495426E1],"tree_param":{"num_deleted":"0","num_feature":"31","num_nodes":"39","size_leaf_vector":"1"}},{"base_weights":[2.5396585E-2,-1.5120381E0,1.013921E0,-1.3970684E0,-8.485369E-2,8.5854286E-1,1.2891114E0,-1.1592548E0,-7.618677E-2,4.8475558E-1,9.67279E-1,1.350529E0,1.407845E-2,-6.238284E-1,-1.3143711E0,-1.9516696E-1,7.5551975E-1,1.2822344E0,8.0255497E-1,1.4284811E0,9.3799424E-1,-4.5917694E-2,-9.126166E-3,-9.139691E-1,-1.465108E0,-3.155715E-2,1.0521807E-2,9.6664107E-1,-7.1425135E-3,2.7507344E-2,6.957833E-2,6.606729E-1,1.1347097E0,7.44325E-2,3.812832E-2,2.2530105E-2,6.1604213E-2,-1.7100288E-2,-7.1307056E-2,-3.8487487E-2,-8.073905E-2,5.9108015E-2,4.3346207E-3,1.8670058E-2,4.8572663E-2,3.823041E-2,7.05285E-2],"categories":[],"categories_nodes":[],"categories_segments":[],"categories_sizes":[],"default_left":[0,0,0,0,0,0,0,0,0,0,0,0,0,0,0,0,0,0,0,0,0,0,0,0,0,0,0,0,0,0,0,0,0,0,0,0,0,0,0,0,0,0,0,0,0,0,0],"id":4,"left_children":[1,3,5,7,-1,9,11,13,-1,15,17,19,-1,21,23,25,27,29,31,33,35,-1,-1,37,39,-1,-1,41,-1,-1,-1,43,45,-1,-1,-1,-1,-1,-1,-1,-1,-1,-1,-1,-1,-1,-1],"loss_changes":[7.205563E2,1.5763855E0,1.1231506E1,1.8513641E0,0E0,7.148636E0,5.940048E0,2.9937286E0,0E0,8.291884E0,6.451111E0,1.7474213E0,0E0,1.4204206E0,7.55291E-1,2.5014114E0,6.177967E0,3.063507E0,3.8377151E0,2.0234985E0,2.0492945E0,0E0,0E0,3.071189E0,1.208168E0,0E0,0E0,4.8120117E0,0E0,0E0,0E0,5.9403305E0,1.7537308E0,0E0,0E0,0E0,0E0,0E0,0E0,0E0,0E0,0E0,0E0,0E0,0E0,0E0,0E0],"parents":[2147483647,0,0,1,1,2,2,3,3,5,5,6,6,7,7,9,9,10,10,11,11,13,13,14,14,15,15,16,16,17,17,18,18,19,19,20,20,23,23,24,24,27,27,31,31,32,32],"right_children":[2,4,6,8,-1,10,12,14,-1,16,18,20,-1,22,24,26,28,30,32,34,36,-1,-1,38,40,-1,-1,42,-1,-1,-1,44,46,-1,-1,-1,-1,-1,-1,-1,-1,-1,-1,-1,-1,-1,-1],"split_conditions":[3E0,1.8476667E-1,6.9136667E0,3E0,-8.485369E-2,3.5E1,3E0,4E0,-7.618677E-2,1.249E-1,5E0,8E1,1.407845E-2,1.5E0,3.6E1,5E0,5E0,2E0,4.1448836E0,8E0,1.3E1,-4.5917694E-2,-9.126166E-3,5E0,2E0,-3.155715E-2,1.0521807E-2,5.5E0,-7.1425135E-3,2.7507344E-2,6.957833E-2,5E0,6E0,7.44325E-2,3.812832E-2,2.2530105E-2,6.1604213E-2,-1.7100288E-2,-7.1307056E-2,-3.8487487E-2,-8.073905E-2,5.9108015E-2,4.3346207E-3,1.8670058E-2,4.8572663E-2,3.823041E-2,7.05285E-2],"split_indices":[1,5,6,29,0,28,8,27,0,5,7,28,0,3,28,27,27,16,12,9,7,0,0,27,30,0,0,3,0,0,0,27,3,0,0,0,0,0,0,0,0,0,0,0,0,0,0],"split_type":[0,0,0,0,0,0,0,0,0,0,0,0,0,0,0,0,0,0,0,0,0,0,0,0,0,0,0,0,0,0,0,0,0,0,0,0,0,0,0,0,0,0,0,0,0,0,0],"sum_hessian":[4.7210638E2,1.8454977E2,2.875566E2,1.19099205E2,6.545057E1,1.8641986E2,1.01136734E2,4.491831E1,7.418089E1,4.3239502E1,1.4318036E2,9.500501E1,6.1317253E0,1.1218001E1,3.3700306E1,1.2394519E1,3.0844984E1,4.6839077E1,9.634129E1,7.7834755E1,1.7170254E1,6.0795417E0,5.1384597E0,1.1148889E1,2.2551416E1,5.705602E0,6.688917E0,2.4914062E1,5.9309216E0,6.8699284E0,3.9969147E1,6.960018E1,2.674111E1,7.025165E1,7.583104E0,7.4144907E0,9.755762E0,6.054895E0,5.093994E0,5.08237E0,1.7469048E1,1.9736666E1,5.177396E0,3.731205E1,3.2288128E1,1.3030614E1,1.3710495E1],"tree_param":{"num_deleted":"0","num_feature":"31","num_nodes":"47","size_leaf_vector":"1"}},{"base_weights":[9.732877E-3,-1.3974742E0,6.8455803E-1,-1.4584777E0,-1.4131603E-2,3.397604E-1,9.726187E-1,-7.385593E-2,-3.9247777E-2,8.406843E-1,3.8488362E-2,1.0386137E0,1.1759107E-1,9.667165E-2,1.0962725E0,-9.882095E-1,4.7501382E-1,8.6506826E-1,1.3598721E0,3.4808613E-2,-1.7180586E-2,-1.5360418E-2,3.78824E-2,1.3851975E0,6.9283485E-1,-1.3371214E0,2.3687722E-3,-2.866269E-1,6.24138E-1,1.040777E0,3.6668774E-1,4.3695327E-2,1.4445971E0,7.694883E-2,3.55735E-2,5.2577566E-2,1.9005275E-3,-7.933845E-2,-2.7309433E-2,2.130654E-3,-2.7713632E-2,4.479371E-2,-1.2147694E-2,6.0002685E-2,3.135811E-2,4.2426985E-2,-1.4117706E-2,4.7739677E-2,7.6119505E-2],"categories":[],"categories_nodes":[],"categories_segments":[],"categories_sizes":[],"default_left":[0,0,0,0,0,0,0,0,0,0,0,0,0,0,0,0,0,0,0,0,0,0,0,0,0,0,0,0,0,0,0,0,0,0,0,0,0,0,0,0,0,0,0,0,0,0,0,0,0],"id":5,"left_children":[1,3,5,7,-1,9,11,-1,-1,13,15,17,19,21,23,25,27,29,31,-1,-1,-1,-1,33,35,37,-1,39,41,43,45,-1,47,-1,-1,-1,-1,-1,-1,-1,-1,-1,-1,-1,-1,-1,-1,-1,-1],"loss_changes":[4.5479108E2,1.0144836E1,3.1818604E1,6.852417E-1,0E0,2.2434122E1,9.7986145E0,0E0,0E0,1.0516628E1,4.260185E1,7.9162903E0,3.9017615E0,4.3384895E0,3.8754845E0,1.031427E1,7.747551E0,9.131592E0,1.0207443E0,0E0,0E0,0E0,0E0,1.3056297E0,4.4960995E0,3.3301582E0,0E0,1.0454754E0,1.3422171E1,4.5028687E0,9.578418E0,0E0,2.87323E-1,0E0,0E0,0E0,0E0,0E0,0E0,0E0,0E0,0E0,0E0,0E0,0E0,0E0,0E0,0E0,0E0],"parents":[2147483647,0,0,1,1,2,2,3,3,5,5,6,6,9,9,10,10,11,11,12,12,13,13,14,14,15,15,16,16,17,17,18,18,23,23,24,24,25,25,27,27,28,28,29,29,30,30,32,32],"right_children":[2,4,6,8,-1,10,12,-1,-1,14,16,18,20,22,24,26,28,30,32,-1,-1,-1,-1,34,36,38,-1,40,42,44,46,-1,48,-1,-1,-1,-1,-1,-1,-1,-1,-1,-1,-1,-1,-1,-1,-1,-1],"split_conditions":[1E0,5.5E0,1.6060667E0,5.977125E0,-1.4131603E-2,8.333333E-5,8.2E1,-7.385593E-2,-3.9247777E-2,8.5E-4,2E0,1.22E2,4.25E1,3.8E1,1.3375834E-1,7E0,9.995E-2,5.05055E0,4.758167E0,3.4808613E-2,-1.7180586E-2,-1.5360418E-2,3.78824E-2,5E0,3E0,3E0,2.3687722E-3,6E0,7.6381665E-1,9.666667E0,5E0,4.3695327E-2,2.1671E-4,7.694883E-2,3.55735E-2,5.2577566E-2,1.9005275E-3,-7.933845E-2,-2.7309433E-2,2.130654E-3,-2.7713632E-2,4.479371E-2,-1.2147694E-2,6.0002685E-2,3.135811E-2,4.2426985E-2,-1.4117706E-2,4.7739677E-2,7.6119505E-2],"split_indices":[13,3,6,5,0,5,28,0,0,6,21,16,3,28,6,16,5,5,5,0,0,0,0,7,10,10,0,7,6,4,21,0,15,0,0,0,0,0,0,0,0,0,0,0,0,0,0,0,0],"split_type":[0,0,0,0,0,0,0,0,0,0,0,0,0,0,0,0,0,0,0,0,0,0,0,0,0,0,0,0,0,0,0,0,0,0,0,0,0,0,0,0,0,0,0,0,0,0,0,0,0],"sum_hessian":[4.7691223E2,1.5422899E2,3.2268323E2,1.4593524E2,8.293735E0,1.4786906E2,1.7481418E2,1.4084406E2,5.0911975E0,5.486116E1,9.30079E1,1.6208871E2,1.272547E1,1.4379865E1,4.0481297E1,2.7370144E1,6.563776E1,1.0763597E2,5.4452736E1,5.4184837E0,7.306986E0,9.258073E0,5.121792E0,2.2170343E1,1.8310951E1,2.0254704E1,7.11544E0,1.059623E1,5.5041523E1,7.877485E1,2.8861122E1,9.763858E0,4.4688877E1,1.7004725E1,5.1656184E0,1.1438838E1,6.8721137E0,1.4630558E1,5.6241455E0,5.1283994E0,5.4678307E0,4.1882774E1,1.31587515E1,5.5500908E1,2.3273941E1,1.638755E1,1.2473571E1,7.94414E0,3.674474E1],"tree_param":{"num_deleted":"0","num_feature":"31","num_nodes":"49","size_leaf_vector":"1"}},{"base_weights":[-3.885975E-2,-1.4014238E0,8.7920773E-1,-1.4434794E0,-8.802339E-1,7.410603E-1,1.146363E0,-1.4609306E0,-3.656857E-2,-1.9569336E-2,-7.318698E-2,2.4938597E-1,7.973978E-1,1.0290194E0,7.7545404E-2,-1.528743E0,-1.2778177E0,5.7026225E-1,-2.8591156E-2,1.040352E0,6.8861324E-1,1.218946E0,6.950749E-1,-7.787496E-2,-3.9475884E-2,-1.890887E-2,-7.010189E-2,5.758016E-2,-1.1314899E-2,8.8582814E-1,7.1494035E-2,-4.0514823E-2,8.2891995E-1,1.2692492E0,3.4517862E-2,1.0485175E0,-3.6443356E-2,1.708233E-2,5.2028395E-2,3.5204176E-2,5.676014E-2,5.2334446E-2,7.4188896E-2,2.2691773E-2,6.0430493E-2],"categories":[],"categories_nodes":[],"categories_segments":[],"categories_sizes":[],"default_left":[0,0,0,0,0,0,0,0,0,0,0,0,0,0,0,0,0,0,0,0,0,0,0,0,0,0,0,0,0,0,0,0,0,0,0,0,0,0,0,0,0,0,0,0,0],"id":6,"left_children":[1,3,5,7,9,11,13,15,-1,-1,-1,17,19,21,-1,23,25,27,-1,29,31,33,35,-1,-1,-1,-1,-1,-1,37,-1,-1,39,41,-1,43,-1,-1,-1,-1,-1,-1,-1,-1,-1],"loss_changes":[5.701139E2,2.7504578E0,9.200775E0,1.0216675E0,4.0653515E0,4.8515015E0,2.7234802E0,7.2631836E-2,0E0,0E0,0E0,5.6485934E0,3.5949783E0,3.8147125E0,0E0,1.1932068E0,5.078453E0,7.2180333E0,0E0,1.6522713E0,2.4990177E1,3.3435822E-1,1.5346881E1,0E0,0E0,0E0,0E0,0E0,0E0,2.7894745E0,0E0,0E0,3.2624512E0,3.7488556E-1,0E0,1.7005291E0,0E0,0E0,0E0,0E0,0E0,0E0,0E0,0E0,0E0],"parents":[2147483647,0,0,1,1,2,2,3,3,4,4,5,5,6,6,7,7,11,11,12,12,13,13,15,15,16,16,17,17,19,19,20,20,21,21,22,22,29,29,32,32,33,33,35,35],"right_children":[2,4,6,8,10,12,14,16,-1,-1,-1,18,20,22,-1,24,26,28,-1,30,32,34,36,-1,-1,-1,-1,-1,-1,38,-1,-1,40,42,-1,44,-1,-1,-1,-1,-1,-1,-1,-1,-1],"split_conditions":[3E0,6.346525E0,6.9136667E0,2E0,2E0,2.4E1,1.8E1,3E0,-3.656857E-2,-1.9569336E-2,-7.318698E-2,8E0,8.333333E-5,4E0,7.7545404E-2,6E0,4E0,9E0,-2.8591156E-2,2E0,6.431667E-2,9E0,1.3E1,-7.787496E-2,-3.9475884E-2,-1.890887E-2,-7.010189E-2,5.758016E-2,-1.1314899E-2,2.7716666E-2,7.1494035E-2,-4.0514823E-2,4.1448836E0,4.25E1,3.4517862E-2,1.06E2,-3.6443356E-2,1.708233E-2,5.2028395E-2,3.5204176E-2,5.676014E-2,5.2334446E-2,7.4188896E-2,2.2691773E-2,6.0430493E-2],"split_indices":[1,5,6,2,1,28,21,25,0,0,0,21,5,9,0,3,25,28,0,25,5,25,3,0,0,0,0,0,0,6,0,0,12,3,0,0,0,0,0,0,0,0,0,0,0],"split_type":[0,0,0,0,0,0,0,0,0,0,0,0,0,0,0,0,0,0,0,0,0,0,0,0,0,0,0,0,0,0,0,0,0,0,0,0,0,0,0,0,0,0,0,0,0],"sum_hessian":[4.5376862E2,1.8245247E2,2.7131613E2,1.6719193E2,1.5260539E1,1.8132559E2,8.999055E1,1.6216624E2,5.0256753E0,9.212922E0,6.047617E0,1.919876E1,1.6212683E2,7.250356E1,1.748699E1,1.1297823E2,4.9188015E1,1.402447E1,5.1742883E0,4.7493557E1,1.1463328E2,4.452843E1,2.7975128E1,1.0768243E2,5.295809E0,6.4584312E0,4.2729584E1,7.8498316E0,6.1746387E0,3.634844E1,1.1145117E1,9.403169E0,1.0523011E2,3.9379654E1,5.148776E0,2.2623346E1,5.351782E0,8.757689E0,2.759075E1,7.710289E1,2.8127222E1,2.2213516E1,1.716614E1,5.6119475E0,1.7011398E1],"tree_param":{"num_deleted":"0","num_feature":"31","num_nodes":"45","size_leaf_vector":"1"}},{"base_weights":[6.488236E-2,-1.3131738E0,9.3439376E-1,-1.3554966E0,-6.968555E-1,8.597225E-1,1.3105847E0,-1.2579209E0,-7.7403255E-2,-8.620647E-3,-4.9457535E-2,8.979446E-1,-6.085032E-3,2.8201947E-2,6.979226E-2,-1.3672653E0,-9.138124E-1,8.543974E-1,7.229086E-2,-7.346983E-2,-1.0892524E0,-1.0952376E0,-5.799491E-1,1.0896984E0,7.144715E-1,-2.190716E-2,-6.5125965E-2,-1.7566303E-2,-7.275661E-2,2.974993E-3,-6.629166E-2,2.774981E-2,5.7838496E-2,2.128251E-2,4.4821236E-2],"categories":[],"categories_nodes":[],"categories_segments":[],"categories_sizes":[],"default_left":[0,0,0,0,0,0,0,0,0,0,0,0,0,0,0,0,0,0,0,0,0,0,0,0,0,0,0,0,0,0,0,0,0,0,0],"id":7,"left_children":[1,3,5,7,9,11,13,15,-1,-1,-1,17,-1,-1,-1,19,21,23,-1,-1,25,27,29,31,33,-1,-1,-1,-1,-1,-1,-1,-1,-1,-1],"loss_changes":[5.62405E2,3.7923584E0,6.9559784E0,1.225769E0,1.9337382E0,9.224319E0,2.1245804E0,3.1685333E0,0E0,0E0,0E0,4.347534E0,0E0,0E0,0E0,8.721924E-1,1.2624378E0,6.4390106E0,0E0,0E0,3.2150154E0,4.6219177E0,6.3536267E0,2.221428E0,6.9952316E0,0E0,0E0,0E0,0E0,0E0,0E0,0E0,0E0,0E0,0E0],"parents":[2147483647,0,0,1,1,2,2,3,3,4,4,5,5,6,6,7,7,11,11,15,15,16,16,17,17,20,20,21,21,22,22,23,23,24,24],"right_children":[2,4,6,8,10,12,14,16,-1,-1,-1,18,-1,-1,-1,20,22,24,-1,-1,26,28,30,32,34,-1,-1,-1,-1,-1,-1,-1,-1,-1,-1],"split_conditions":[3E0,6.2165165E0,1.8E1,1.8147779E-1,1.1707833E1,1.35E1,4.2359195E0,1E0,-7.7403255E-2,-8.620647E-3,-4.9457535E-2,7.5E0,-6.085032E-3,2.8201947E-2,6.979226E-2,3E0,3.5611112E-3,3E0,7.229086E-2,-7.346983E-2,6E0,3.6E1,2E0,3E1,1.4E1,-2.190716E-2,-6.5125965E-2,-1.7566303E-2,-7.275661E-2,2.974993E-3,-6.629166E-2,2.774981E-2,5.7838496E-2,2.128251E-2,4.4821236E-2],"split_indices":[1,6,3,6,6,3,12,19,0,0,0,3,0,0,0,25,6,10,0,0,25,28,1,28,0,0,0,0,0,0,0,0,0,0,0],"split_type":[0,0,0,0,0,0,0,0,0,0,0,0,0,0,0,0,0,0,0,0,0,0,0,0,0,0,0,0,0,0,0,0,0,0,0],"sum_hessian":[4.6733698E2,1.806002E2,2.8673676E2,1.6787294E2,1.2727264E1,2.4198894E2,4.4747814E1,1.1641633E2,5.145662E1,5.1238313E0,7.603433E0,2.3299966E2,8.989271E0,5.367265E0,3.938055E1,8.608763E1,3.0328693E1,2.1821454E2,1.4785137E1,5.982489E1,2.6262741E1,1.8172853E1,1.2155839E1,7.88432E1,1.3937134E2,7.2334046E0,1.9029337E1,6.5695696E0,1.1603284E1,7.0403514E0,5.115487E0,9.821282E0,6.902192E1,5.5157333E1,8.4214E1],"tree_param":{"num_deleted":"0","num_feature":"31","num_nodes":"35","size_leaf_vector":"1"}},{"base_weights":[-8.920067E-3,-1.3194515E0,8.5341525E-1,-1.3622633E0,-7.4407846E-1,7.3658484E-1,1.2319645E0,-1.1266762E0,-1.4286302E0,-9.011586E-3,-5.1512927E-2,8.105151E-1,2.5544858E-1,1.2924589E0,3.7326183E-2,-1.259854E0,-1.8657178E-2,-7.2697036E-2,-3.5074547E-2,6.8478507E-1,1.1018965E0,1.0100653E0,-4.691723E-1,4.5509804E-2,6.780981E-2,-6.692212E-2,-3.5885878E-2,7.973927E-1,-4.864832E-2,9.623104E-1,7.630292E-2,2.790728E-2,7.31536E-2,-6.0944285E-2,2.6464632E-2,4.2867035E-2,-1.2823919E-2,-7.008379E-2,3.7639897E-2,5.5057574E-2,-3.1582003E-3],"categories":[],"categories_nodes":[],"categories_segments":[],"categories_sizes":[],"default_left":[0,0,0,0,0,0,0,0,0,0,0,0,0,0,0,0,0,0,0,0,0,0,0,0,0,0,0,0,0,0,0,0,0,0,0,0,0,0,0,0,0],"id":8,"left_children":[1,3,5,7,9,11,13,15,17,-1,-1,19,21,23,-1,25,-1,-1,-1,27,29,31,33,-1,-1,-1,-1,35,37,39,-1,-1,-1,-1,-1,-1,-1,-1,-1,-1,-1],"loss_changes":[5.1050113E2,3.4023132E0,1.1142227E1,9.804077E-1,2.1732473E0,7.287216E0,8.784561E-1,3.6584625E0,1.2900085E0,0E0,0E0,5.9191437E0,1.6616856E1,9.2163086E-2,0E0,5.1099014E-1,0E0,0E0,0E0,1.0767006E1,1.6853256E0,2.2089596E0,1.242988E1,0E0,0E0,0E0,0E0,7.3377914E0,2.0825268E1,6.161331E0,0E0,0E0,0E0,0E0,0E0,0E0,0E0,0E0,0E0,0E0,0E0],"parents":[2147483647,0,0,1,1,2,2,3,3,4,4,5,5,6,6,7,7,8,8,11,11,12,12,13,13,15,15,19,19,20,20,21,21,22,22,27,27,28,28,29,29],"right_children":[2,4,6,8,10,12,14,16,18,-1,-1,20,22,24,-1,26,-1,-1,-1,28,30,32,34,-1,-1,-1,-1,36,38,40,-1,-1,-1,-1,-1,-1,-1,-1,-1,-1,-1],"split_conditions":[3E0,6.346525E0,1.29E2,4E0,9.763766E0,1.7E1,8E0,7.219281E-1,2E0,-9.011586E-3,-5.1512927E-2,3.6212788E0,4.5E0,7.5E0,3.7326183E-2,1E1,-1.8657178E-2,-7.2697036E-2,-3.5074547E-2,3.121928E0,3.9E1,9.3E1,1.75E1,4.5509804E-2,6.780981E-2,-6.692212E-2,-3.5885878E-2,4.3342E-3,1.4E1,3.1E1,7.630292E-2,2.790728E-2,7.31536E-2,-6.0944285E-2,2.6464632E-2,4.2867035E-2,-1.2823919E-2,-7.008379E-2,3.7639897E-2,5.5057574E-2,-3.1582003E-3],"split_indices":[1,5,0,27,5,22,9,12,2,0,0,12,3,3,0,25,0,0,0,12,0,0,3,0,0,0,0,15,0,0,0,0,0,0,0,0,0,0,0,0,0],"split_type":[0,0,0,0,0,0,0,0,0,0,0,0,0,0,0,0,0,0,0,0,0,0,0,0,0,0,0,0,0,0,0,0,0,0,0,0,0,0,0,0,0],"sum_hessian":[4.4972754E2,1.7827086E2,2.7145667E2,1.6465195E2,1.3618909E1,2.0968738E2,6.1769287E1,4.014016E1,1.2451179E2,5.133805E0,8.485104E0,1.8116537E2,2.8522009E1,5.3446487E1,8.3228E0,3.354038E1,6.5997815E0,1.1935763E2,5.15416E0,1.2889694E2,5.226842E1,1.3778854E1,1.47431555E1,9.821692E0,4.3624794E1,2.801105E1,5.5293293E0,1.1166523E2,1.7231718E1,4.1785946E1,1.0482475E1,8.015089E0,5.7637653E0,8.294408E0,6.4487476E0,1.05831635E2,5.8335977E0,6.1314583E0,1.110026E1,3.6738102E1,5.0478463E0],"tree_param":{"num_deleted":"0","num_feature":"31","num_nodes":"41","size_leaf_vector":"1"}},{"base_weights":[-2.1155786E-2,-1.3193086E0,8.0650115E-1,-1.0632346E0,-1.36304E0,6.8698144E-1,1.0557151E0,-6.210797E-2,-2.4964353E-2,-1.2602433E0,-7.471073E-2,3.7169096E-1,7.810576E-1,6.1317015E-1,1.2037721E0,-1.2917569E0,-3.2147232E-2,-6.592534E-1,7.0265913E-1,1.0652004E0,5.922002E-1,8.939272E-1,-3.8269756E-3,1.3478881E0,8.9786947E-1,-1.3247019E0,-3.4355637E-2,4.9609534E-4,-6.0786095E-2,9.078434E-1,-1.2318797E-2,1.2351698E0,7.999275E-1,3.8014565E-2,7.2072315E-1,5.978016E-2,1.3354965E-2,1.4049475E0,4.0051114E-2,6.671708E-2,5.003253E-1,-7.290788E-2,-5.3946048E-2,6.0896195E-2,-1.1782622E-2,2.3564441E-2,7.041823E-2,5.65044E-2,9.897967E-3,3.2459106E-2,-4.42854E-2,2.8573727E-2,5.1859863E-2,7.399405E-2,4.0468052E-2,5.6185104E-2,-7.52283E-3],"categories":[],"categories_nodes":[],"categories_segments":[],"categories_sizes":[],"default_left":[0,0,0,0,0,0,0,0,0,0,0,0,0,0,0,0,0,0,0,0,0,0,0,0,0,0,0,0,0,0,0,0,0,0,0,0,0,0,0,0,0,0,0,0,0,0,0,0,0,0,0,0,0,0,0,0,0],"id":9,"left_children":[1,3,5,7,9,11,13,-1,-1,15,-1,17,19,21,23,25,-1,27,29,31,33,35,-1,37,39,41,-1,-1,-1,43,-1,45,47,49,51,-1,-1,53,-1,-1,55,-1,-1,-1,-1,-1,-1,-1,-1,-1,-1,-1,-1,-1,-1,-1,-1],"loss_changes":[4.7328766E2,4.7128296E-1,7.287613E0,2.362751E0,4.434204E-2,5.187538E0,4.853142E0,0E0,0E0,8.5261536E-1,0E0,1.5595616E1,6.953377E0,4.605522E0,1.5629044E0,7.098694E-1,0E0,4.217501E0,6.8552322E0,1.4998398E0,6.1801376E0,2.8444529E0,0E0,1.4659882E-1,3.347536E0,9.212189E-1,0E0,0E0,0E0,1.0291391E1,0E0,3.5423813E0,4.622884E0,1.043352E1,2.7462158E0,0E0,0E0,3.9042664E-1,0E0,0E0,5.730893E0,0E0,0E0,0E0,0E0,0E0,0E0,0E0,0E0,0E0,0E0,0E0,0E0,0E0,0E0,0E0,0E0],"parents":[2147483647,0,0,1,1,2,2,3,3,4,4,5,5,6,6,9,9,11,11,12,12,13,13,14,14,15,15,17,17,18,18,19,19,20,20,21,21,23,23,24,24,25,25,29,29,31,31,32,32,33,33,34,34,37,37,40,40],"right_children":[2,4,6,8,10,12,14,-1,-1,16,-1,18,20,22,24,26,-1,28,30,32,34,36,-1,38,40,42,-1,-1,-1,44,-1,46,48,50,52,-1,-1,54,-1,-1,56,-1,-1,-1,-1,-1,-1,-1,-1,-1,-1,-1,-1,-1,-1,-1,-1],"split_conditions":[3E0,2E0,6.9136667E0,6.07E-2,1.8476667E-1,3.5E1,2E0,-6.210797E-2,-2.4964353E-2,1.2865E-1,-7.471073E-2,1.249E-1,3E0,3E1,5E0,2E0,-3.2147232E-2,2.6E1,5.5E0,4.7E1,2.1213889E-1,3.8E1,-3.8269756E-3,5E0,3.6E1,3E0,-3.4355637E-2,4.9609534E-4,-6.0786095E-2,5E0,-1.2318797E-2,2.465E-2,2.1280854E0,1.3375834E-1,4.1448836E0,5.978016E-2,1.3354965E-2,1.11333336E2,4.0051114E-2,6.671708E-2,4.3281803E0,-7.290788E-2,-5.3946048E-2,6.0896195E-2,-1.1782622E-2,2.3564441E-2,7.041823E-2,5.65044E-2,9.897967E-3,3.2459106E-2,-4.42854E-2,2.8573727E-2,5.1859863E-2,7.399405E-2,4.0468052E-2,5.6185104E-2,-7.52283E-3],"split_indices":[1,27,6,5,5,28,19,0,0,6,0,5,10,4,9,19,0,28,3,28,6,28,0,10,28,25,0,0,0,27,0,6,12,6,12,0,0,4,0,0,12,0,0,0,0,0,0,0,0,0,0,0,0,0,0,0,0],"split_type":[0,0,0,0,0,0,0,0,0,0,0,0,0,0,0,0,0,0,0,0,0,0,0,0,0,0,0,0,0,0,0,0,0,0,0,0,0,0,0,0,0,0,0,0,0,0,0,0,0,0,0,0,0,0,0,0,0],"sum_hessian":[4.385128E2,1.704981E2,2.680147E2,2.8562096E1,1.4193599E2,1.8368053E2,8.433418E1,2.0769802E1,7.7922935E0,8.552249E1,5.6413498E1,4.3349224E1,1.4033131E2,2.2430496E1,6.1903683E1,8.032903E1,5.1934633E0,1.0293559E1,3.3055664E1,5.4178123E1,8.615319E1,1.5730897E1,6.6995993E0,3.9763927E1,2.2139755E1,7.504899E1,5.2800393E0,5.1194215E0,5.174137E0,2.7215084E1,5.840582E0,3.0792261E1,2.338586E1,1.646266E1,6.969053E1,1.000727E1,5.7236276E0,3.4586155E1,5.177772E0,9.42995E0,1.2709805E1,4.54419E1,2.9607094E1,2.1358292E1,5.856792E0,6.3789363E0,2.4413324E1,1.4536001E1,8.84986E0,1.0086371E1,6.3762894E0,4.9263638E1,2.042689E1,2.940219E1,5.183967E0,6.120424E0,6.5893807E0],"tree_param":{"num_deleted":"0","num_feature":"31","num_nodes":"57","size_leaf_vector":"1"}},{"base_weights":[-2.5740564E-3,-1.1816996E0,5.518974E-1,-1.2423352E0,-1.3451777E-2,3.2061565E-1,9.1905165E-1,-3.8533356E-2,-1.2618859E0,7.3397624E-1,1.2962149E-1,7.0753324E-1,1.1534669E0,-1.1409323E0,-7.1574464E-2,-9.1532186E-2,1.0279365E0,-7.153554E-2,3.1192046E-1,6.75725E-2,6.027264E-1,5.776655E-1,6.685612E-2,-1.2793492E0,-7.96295E-1,1.9703455E-2,-2.8680583E-2,1.1248511E0,2.0011086E-2,7.3849046E-1,7.480231E-2,7.31163E-1,1.14086926E-1,5.876693E-3,5.2850753E-2,-3.52374E-2,-6.6931374E-2,-9.168155E-3,-5.678725E-2,6.8451755E-2,4.5981586E-2,-3.724873E-2,4.9145173E-2,-5.1573593E-2,1.3164607E-2,7.6961475E-3,4.41582E-2,-1.6716354E-2,2.6147312E-2],"categories":[],"categories_nodes":[],"categories_segments":[],"categories_sizes":[],"default_left":[0,0,0,0,0,0,0,0,0,0,0,0,0,0,0,0,0,0,0,0,0,0,0,0,0,0,0,0,0,0,0,0,0,0,0,0,0,0,0,0,0,0,0,0,0,0,0,0,0],"id":10,"left_children":[1,3,5,7,-1,9,11,-1,13,15,17,19,21,23,-1,25,27,-1,29,-1,31,33,-1,35,37,-1,-1,39,-1,41,43,45,47,-1,-1,-1,-1,-1,-1,-1,-1,-1,-1,-1,-1,-1,-1,-1,-1],"loss_changes":[2.8411197E2,7.3573914E0,2.4804352E1,2.2677612E-1,0E0,1.4342939E1,4.8213425E0,0E0,8.963165E-1,1.4066895E1,3.6371124E1,3.393526E0,4.762802E0,2.6498566E0,0E0,3.9805558E0,2.137844E0,0E0,1.1466073E1,0E0,3.3953705E0,3.0559516E0,0E0,8.6932373E-1,4.9276867E0,0E0,0E0,5.600357E-1,0E0,1.5446711E1,1.576955E1,3.6990986E0,2.50728E0,0E0,0E0,0E0,0E0,0E0,0E0,0E0,0E0,0E0,0E0,0E0,0E0,0E0,0E0,0E0,0E0],"parents":[2147483647,0,0,1,1,2,2,3,3,5,5,6,6,8,8,9,9,10,10,11,11,12,12,13,13,15,15,16,16,18,18,20,20,21,21,23,23,24,24,27,27,29,29,30,30,31,31,32,32],"right_children":[2,4,6,8,-1,10,12,-1,14,16,18,20,22,24,-1,26,28,-1,30,-1,32,34,-1,36,38,-1,-1,40,-1,42,44,46,48,-1,-1,-1,-1,-1,-1,-1,-1,-1,-1,-1,-1,-1,-1,-1,-1],"split_conditions":[1E0,6.346525E0,2E0,2E0,-1.3451777E-2,8.333333E-5,7.5E0,-3.8533356E-2,4.0833335E-3,2.7716666E-2,1.5866328E0,2E0,2E0,3E0,-7.1574464E-2,2E0,5.7E1,-7.153554E-2,2.75E0,6.75725E-2,1.0852272E1,1.28E2,6.685612E-2,1E0,6E0,1.9703455E-2,-2.8680583E-2,1.3234444E-1,2.0011086E-2,3.5066668E-2,2.822718E0,1.3E1,2.6333334E1,5.876693E-3,5.2850753E-2,-3.52374E-2,-6.6931374E-2,-9.168155E-3,-5.678725E-2,6.8451755E-2,4.5981586E-2,-3.724873E-2,4.9145173E-2,-5.1573593E-2,1.3164607E-2,7.6961475E-3,4.41582E-2,-1.6716354E-2,2.6147312E-2],"split_indices":[13,5,11,30,0,5,3,0,5,6,12,3,19,25,0,7,28,0,4,0,6,0,0,16,25,0,0,6,0,5,12,16,4,0,0,0,0,0,0,0,0,0,0,0,0,0,0,0,0],"split_type":[0,0,0,0,0,0,0,0,0,0,0,0,0,0,0,0,0,0,0,0,0,0,0,0,0,0,0,0,0,0,0,0,0,0,0,0,0,0,0,0,0,0,0,0,0,0,0,0,0],"sum_hessian":[4.32563E2,1.3798857E2,2.945744E2,1.2905331E2,8.935259E0,1.8187746E2,1.1269695E2,6.7450395E0,1.2230827E2,5.6580257E1,1.25297195E2,6.135405E1,5.13429E1,7.5903984E1,4.640429E1,1.5038182E1,4.1542076E1,1.2391111E1,1.1290608E2,6.92336E0,5.443069E1,1.3418438E1,3.792446E1,5.221906E1,2.3684927E1,7.5826755E0,7.4555063E0,3.5300026E1,6.2420506E0,3.9582912E1,7.3323166E1,4.2708603E1,1.1722086E1,7.4817944E0,5.9366436E0,6.088673E0,4.6130383E1,8.990786E0,1.4694142E1,1.3530016E1,2.177001E1,5.309411E0,3.4273502E1,1.0023208E1,6.329996E1,9.321571E0,3.338703E1,5.677555E0,6.044531E0],"tree_param":{"num_deleted":"0","num_feature":"31","num_nodes":"49","size_leaf_vector":"1"}},{"base_weights":[9.993748E-3,-1.1760476E0,5.4454595E-1,-6.2321257E-2,7.2354265E-3,2.515885E-1,7.8726137E-1,6.7090154E-1,-1.2934276E-2,8.824587E-1,3.218987E-1,-6.416011E-2,9.95632E-1,-9.111699E-1,2.0186456E-1,6.575346E-1,1.0797836E0,3.5497185E-2,5.5856895E-2,-2.714414E-2,2.1712614E-2,1.2598982E0,5.221644E-1,-6.658627E-2,-8.6433237E-4,-3.794359E-2,3.570245E-1,7.863603E-1,-3.7439235E-2,1.1665978E0,5.569067E-1,-4.7427747E-1,3.4236934E-2,3.9795943E-2,6.950061E-2,4.7160413E-2,-1.07945055E-2,2.4521371E-2,-3.5556983E-2,4.7000196E-2,4.1976846E-3,6.185926E-2,1.7276553E-2,4.9098603E-2,5.194921E-3,-5.9343614E-2,1.4816641E-2],"categories":[],"categories_nodes":[],"categories_segments":[],"categories_sizes":[],"default_left":[0,0,0,0,0,0,0,0,0,0,0,0,0,0,0,0,0,0,0,0,0,0,0,0,0,0,0,0,0,0,0,0,0,0,0,0,0,0,0,0,0,0,0,0,0,0,0],"id":11,"left_children":[1,3,5,-1,-1,7,9,11,13,15,17,19,21,23,25,27,29,31,-1,-1,-1,33,35,-1,-1,-1,37,39,-1,41,43,45,-1,-1,-1,-1,-1,-1,-1,-1,-1,-1,-1,-1,-1,-1,-1],"loss_changes":[2.752939E2,1.2719955E1,2.1083885E1,0E0,0E0,1.5213803E1,6.946686E0,1.2725859E1,1.6591223E1,5.2783966E0,6.6319876E0,4.3381004E0,3.9532127E0,6.2145443E0,1.0623074E1,1.2475403E1,2.5421066E0,7.7944403E0,0E0,0E0,0E0,2.7878952E-1,4.8366528E0,0E0,0E0,0E0,8.965481E0,6.4601936E0,0E0,3.014534E0,2.1943378E0,7.6185703E0,0E0,0E0,0E0,0E0,0E0,0E0,0E0,0E0,0E0,0E0,0E0,0E0,0E0,0E0,0E0],"parents":[2147483647,0,0,1,1,2,2,5,5,6,6,7,7,8,8,9,9,10,10,11,11,12,12,13,13,14,14,15,15,16,16,17,17,21,21,22,22,26,26,27,27,29,29,30,30,31,31],"right_children":[2,4,6,-1,-1,8,10,12,14,16,18,20,22,24,26,28,30,32,-1,-1,-1,34,36,-1,-1,-1,38,40,-1,42,44,46,-1,-1,-1,-1,-1,-1,-1,-1,-1,-1,-1,-1,-1,-1,-1],"split_conditions":[1E0,5.5E0,1.6060667E0,-6.2321257E-2,7.2354265E-3,8.333333E-5,8.1E1,2.7716666E-2,1.9499445E-1,4.7E1,3.8E1,2E0,3E0,7E0,4E0,1.5E1,8E0,4E0,5.5856895E-2,-2.714414E-2,2.1712614E-2,3E0,5E0,-6.658627E-2,-8.6433237E-4,-3.794359E-2,7.9E1,5.2243333E0,-3.7439235E-2,3E0,3.6E1,1.1910502E0,3.4236934E-2,3.9795943E-2,6.950061E-2,4.7160413E-2,-1.07945055E-2,2.4521371E-2,-3.5556983E-2,4.7000196E-2,4.1976846E-3,6.185926E-2,1.7276553E-2,4.9098603E-2,5.194921E-3,-5.9343614E-2,1.4816641E-2],"split_indices":[13,3,6,0,0,5,28,6,6,17,19,16,10,16,16,22,9,10,0,0,0,16,7,0,0,0,28,5,0,8,28,15,0,0,0,0,0,0,0,0,0,0,0,0,0,0,0],"split_type":[0,0,0,0,0,0,0,0,0,0,0,0,0,0,0,0,0,0,0,0,0,0,0,0,0,0,0,0,0,0,0,0,0,0,0,0,0,0,0,0,0,0,0,0,0,0,0],"sum_hessian":[4.3220673E2,1.339047E2,2.9830203E2,1.2718388E2,6.7208138E0,1.3608456E2,1.6221747E2,5.204624E1,8.4038315E1,1.3392474E2,2.829272E1,1.6193336E1,3.5852905E1,1.5592474E1,6.844584E1,6.461009E1,6.931465E1,2.1569284E1,6.7234354E0,8.214309E0,7.9790277E0,2.1943903E1,1.3909004E1,1.0270551E1,5.321923E0,8.97605E0,5.946979E1,5.959201E1,5.0180826E0,5.8389095E1,1.0925559E1,1.2233339E1,9.335945E0,6.3647246E0,1.5579178E1,8.679547E0,5.2294564E0,5.334803E1,6.121763E0,4.8618904E1,1.0973105E1,5.3300064E1,5.089031E0,5.034208E0,5.8913517E0,6.0752726E0,6.1580667E0],"tree_param":{"num_deleted":"0","num_feature":"31","num_nodes":"47","size_leaf_vector":"1"}},{"base_weights":[1.6513854E-2,-1.115209E0,5.188887E-1,-1.1778892E0,-8.545353E-3,2.5582662E-1,7.9059124E-1,-1.107162E0,-6.776907E-2,6.770867E-1,3.5074E-2,8.5573286E-1,6.693556E-2,-1.1815435E0,-7.6600444E-1,8.421405E-2,9.560213E-1,-6.4946316E-2,1.9333339E-1,7.720375E-1,6.792037E-2,-1.6477734E-2,1.9014893E-2,-6.0788006E-2,-3.4302887E-2,-1.0538507E0,1.0507515E-3,-1.2424224E-2,2.0207016E-2,1.1295627E0,1.8673435E-2,-7.052287E-1,3.3783236E-1,1.0693629E0,6.366094E-1,-2.8462488E-2,-6.3053556E-2,6.9544055E-2,3.497593E-2,-1.5748274E-2,-5.0065953E-2,2.484544E-2,-1.1147435E-2,6.061643E-2,1.8593762E-2,-4.975168E-3,3.853428E-2],"categories":[],"categories_nodes":[],"categories_segments":[],"categories_sizes":[],"default_left":[0,0,0,0,0,0,0,0,0,0,0,0,0,0,0,0,0,0,0,0,0,0,0,0,0,0,0,0,0,0,0,0,0,0,0,0,0,0,0,0,0,0,0,0,0,0,0],"id":12,"left_children":[1,3,5,7,-1,9,11,13,-1,15,17,19,21,23,25,27,29,-1,31,33,-1,-1,-1,-1,-1,35,-1,-1,-1,37,-1,39,41,43,45,-1,-1,-1,-1,-1,-1,-1,-1,-1,-1,-1,-1],"loss_changes":[2.4406642E2,7.6103973E0,2.104589E1,5.0933838E-2,0E0,1.4159859E1,6.8139114E0,1.4761505E0,0E0,8.583197E0,2.1601984E1,4.573654E0,1.7557132E0,4.4078827E-1,4.471492E0,2.001258E0,3.1701775E0,0E0,1.2089811E1,4.0255814E0,0E0,0E0,0E0,0E0,0E0,7.2820187E-1,0E0,0E0,0E0,2.0479546E0,0E0,1.1832118E0,7.1856585E0,3.0498352E0,8.246117E0,0E0,0E0,0E0,0E0,0E0,0E0,0E0,0E0,0E0,0E0,0E0,0E0],"parents":[2147483647,0,0,1,1,2,2,3,3,5,5,6,6,7,7,9,9,10,10,11,11,12,12,13,13,14,14,15,15,16,16,18,18,19,19,25,25,29,29,31,31,32,32,33,33,34,34],"right_children":[2,4,6,8,-1,10,12,14,-1,16,18,20,22,24,26,28,30,-1,32,34,-1,-1,-1,-1,-1,36,-1,-1,-1,38,-1,40,42,44,46,-1,-1,-1,-1,-1,-1,-1,-1,-1,-1,-1,-1],"split_conditions":[1E0,6.346525E0,2.3589945E0,1.8476667E-1,-8.545353E-3,8.333333E-5,8.2E1,1E0,-6.776907E-2,2.7716666E-2,5E0,5.2E1,8.3E1,3E0,3.7E-3,5E0,2E0,-6.4946316E-2,1.9499445E-1,3E0,6.792037E-2,-1.6477734E-2,1.9014893E-2,-6.0788006E-2,-3.4302887E-2,3.7E1,1.0507515E-3,-1.2424224E-2,2.0207016E-2,1.3375834E-1,1.8673435E-2,2.5E0,5.6E1,1.0338666E0,1.8267334E0,-2.8462488E-2,-6.3053556E-2,6.9544055E-2,3.497593E-2,-1.5748274E-2,-5.0065953E-2,2.484544E-2,-1.1147435E-2,6.061643E-2,1.8593762E-2,-4.975168E-3,3.853428E-2],"split_indices":[13,5,6,5,0,5,28,19,0,6,0,3,18,26,5,27,8,0,6,3,0,0,0,0,0,28,0,0,0,6,0,4,28,5,5,0,0,0,0,0,0,0,0,0,0,0,0],"split_type":[0,0,0,0,0,0,0,0,0,0,0,0,0,0,0,0,0,0,0,0,0,0,0,0,0,0,0,0,0,0,0,0,0,0,0,0,0,0,0,0,0,0,0,0,0,0,0],"sum_hessian":[4.2726157E2,1.309791E2,2.9628247E2,1.2259425E2,8.38484E0,1.515213E2,1.4476118E2,9.283793E1,2.9756319E1,5.1389E1,1.001323E2,1.3263887E2,1.2122322E1,7.419755E1,1.8640383E1,1.6858448E1,3.4530552E1,9.854993E0,9.0277306E1,1.158806E2,1.6758268E1,5.3285522E0,6.79377E0,6.804492E1,6.152631E0,1.340029E1,5.2400923E0,8.373728E0,8.484721E0,2.5881504E1,8.649047E0,1.1968856E1,7.830845E1,3.4106155E1,8.177444E1,5.13613E0,8.26416E0,1.4709147E1,1.1172357E1,6.053612E0,5.915243E0,6.1092323E1,1.7216125E1,2.7691938E1,6.4142184E0,1.2639297E1,6.913515E1],"tree_param":{"num_deleted":"0","num_feature":"31","num_nodes":"47","size_leaf_vector":"1"}},{"base_weights":[3.3663042E-2,-1.1907243E0,7.606181E-1,-6.17952E-2,-6.367015E-1,6.664865E-1,1.0049355E0,-6.672952E-3,-6.4853944E-2,7.073792E-1,-3.3619612E-2,1.0808723E0,6.012256E-1,7.332408E-1,-9.173556E-3,1.1359532E0,2.7960707E-2,5.077147E-2,5.7625194E-4,6.8861115E-1,7.188488E-2,2.9213903E-2,6.0160276E-2,3.7718166E-2,-5.2748322E-2],"categories":[],"categories_nodes":[],"categories_segments":[],"categories_sizes":[],"default_left":[0,0,0,0,0,0,0,0,0,0,0,0,0,0,0,0,0,0,0,0,0,0,0,0,0],"id":13,"left_children":[1,3,5,-1,7,9,11,-1,-1,13,-1,15,17,19,-1,21,-1,-1,-1,23,-1,-1,-1,-1,-1],"loss_changes":[3.8334146E2,3.2294617E0,5.5444946E0,0E0,4.5330524E0,1.1317619E1,1.5936661E0,0E0,0E0,4.572815E0,0E0,1.0986328E0,3.3687181E0,4.902069E0,0E0,1.2860184E0,0E0,0E0,0E0,2.1221176E1,0E0,0E0,0E0,0E0,0E0],"parents":[2147483647,0,0,1,1,2,2,4,4,5,5,6,6,9,9,11,11,12,12,13,13,15,15,19,19],"right_children":[2,4,6,-1,8,10,12,-1,-1,14,-1,16,18,20,-1,22,-1,-1,-1,24,-1,-1,-1,-1,-1],"split_conditions":[3E0,6.346525E0,1.08E2,-6.17952E-2,2E0,3.361E-1,8E0,-6.672952E-3,-6.4853944E-2,7.8E1,-3.3619612E-2,3E0,1.42E2,1.85E1,-9.173556E-3,6.1413E0,2.7960707E-2,5.077147E-2,5.7625194E-4,1.4E1,7.188488E-2,2.9213903E-2,6.0160276E-2,3.7718166E-2,-5.2748322E-2],"split_indices":[1,5,0,0,1,15,9,0,0,0,0,8,0,4,0,6,0,0,0,17,0,0,0,0,0],"split_type":[0,0,0,0,0,0,0,0,0,0,0,0,0,0,0,0,0,0,0,0,0,0,0,0,0],"sum_hessian":[4.2866714E2,1.5945844E2,2.692087E2,1.4629733E2,1.3161106E1,1.9702579E2,7.218293E1,8.1514015E0,5.009705E0,1.9164417E2,5.3816285E0,5.9343277E1,1.2839656E1,1.8640958E2,5.2345867E0,5.261063E1,6.732647E0,7.1180325E0,5.721623E0,1.7716322E2,9.246359E0,6.7693095E0,4.584132E1,1.7127173E2,5.891493E0],"tree_param":{"num_deleted":"0","num_feature":"31","num_nodes":"25","size_leaf_vector":"1"}},{"base_weights":[-2.4170458E-2,-1.134194E0,6.7073774E-1,-1.1785095E0,-5.9343517E-1,5.452635E-1,9.195063E-1,-1.0893228E0,-6.7501985E-2,-3.3402944E-3,-4.4299807E-2,4.453114E-1,8.37679E-1,5.4327697E-1,1.0490042E0,-5.941077E-2,-7.639553E-1,5.467942E-1,1.12248056E-1,1.0126935E0,3.076572E-1,5.09932E-2,6.365202E-2,5.8894075E-2,7.858498E-1,-3.8237993E-3,-9.522544E-1,9.7359285E-2,6.7035764E-1,-4.0159624E-2,3.9868248E-1,6.74862E-1,6.119137E-2,3.762416E-2,-1.0762119E-2,-3.5332225E-2,3.392183E-2,7.6524834E-3,9.8285955E-1,-2.8661434E-2,-6.2748946E-2,2.2343574E-2,-4.4352293E-2,3.894551E-2,-5.20423E-3,5.1390614E-2,-1.0800639E-2,-3.276145E-3,5.4522257E-2,6.2793806E-2,1.795592E-2],"categories":[],"categories_nodes":[],"categories_segments":[],"categories_sizes":[],"default_left":[0,0,0,0,0,0,0,0,0,0,0,0,0,0,0,0,0,0,0,0,0,0,0,0,0,0,0,0,0,0,0,0,0,0,0,0,0,0,0,0,0,0,0,0,0,0,0,0,0,0,0],"id":14,"left_children":[1,3,5,7,9,11,13,15,-1,-1,-1,17,19,21,23,-1,25,27,29,31,33,-1,35,-1,37,-1,39,41,43,-1,45,47,-1,-1,-1,-1,-1,-1,49,-1,-1,-1,-1,-1,-1,-1,-1,-1,-1,-1,-1],"loss_changes":[3.1173047E2,3.0290222E0,7.2571487E0,7.1369934E-1,2.0667906E0,4.5278587E0,3.419304E0,2.2815552E0,0E0,0E0,0E0,4.2346325E0,3.5454693E0,5.2017045E0,1.1037521E0,0E0,3.2805862E0,5.330351E0,8.433359E0,1.3725567E0,2.8968682E0,0E0,6.4227266E0,0E0,2.676529E0,0E0,1.603836E0,8.007616E0,6.473366E0,0E0,9.594369E0,4.40486E0,0E0,0E0,0E0,0E0,0E0,0E0,2.4623165E0,0E0,0E0,0E0,0E0,0E0,0E0,0E0,0E0,0E0,0E0,0E0,0E0],"parents":[2147483647,0,0,1,1,2,2,3,3,4,4,5,5,6,6,7,7,11,11,12,12,13,13,14,14,16,16,17,17,18,18,19,19,20,20,22,22,24,24,26,26,27,27,28,28,30,30,31,31,38,38],"right_children":[2,4,6,8,10,12,14,16,-1,-1,-1,18,20,22,24,-1,26,28,30,32,34,-1,36,-1,38,-1,40,42,44,-1,46,48,-1,-1,-1,-1,-1,-1,50,-1,-1,-1,-1,-1,-1,-1,-1,-1,-1,-1,-1],"split_conditions":[3E0,6.47205E0,6.9136667E0,1.8147779E-1,9.820224E0,2E0,2E0,1E0,-6.7501985E-2,-3.3402944E-3,-4.4299807E-2,5.6E1,2.2711167E0,4.5E0,6E0,-5.941077E-2,4E0,1.8048333E-1,7.8E1,2E0,3.3595214E0,5.09932E-2,1.33E2,5.8894075E-2,1.17E2,-3.8237993E-3,3E0,1.28E-1,4.3423667E0,-4.0159624E-2,2.1280854E0,2.9401112E-1,6.119137E-2,3.762416E-2,-1.0762119E-2,-3.5332225E-2,3.392183E-2,7.6524834E-3,1.1E1,-2.8661434E-2,-6.2748946E-2,2.2343574E-2,-4.4352293E-2,3.894551E-2,-5.20423E-3,5.1390614E-2,-1.0800639E-2,-3.276145E-3,5.4522257E-2,6.2793806E-2,1.795592E-2],"split_indices":[1,6,6,6,6,25,19,19,0,0,0,28,6,3,30,0,27,6,28,30,12,0,0,0,16,0,0,6,6,0,12,6,0,0,0,0,0,0,19,0,0,0,0,0,0,0,0,0,0,0,0],"split_type":[0,0,0,0,0,0,0,0,0,0,0,0,0,0,0,0,0,0,0,0,0,0,0,0,0,0,0,0,0,0,0,0,0,0,0,0,0,0,0,0,0,0,0,0,0,0,0,0,0,0,0],"sum_hessian":[4.021424E2,1.5458354E2,2.4755884E2,1.4178485E2,1.2798693E1,1.6668027E2,8.087857E1,9.811883E1,4.3666027E1,5.009538E0,7.789155E0,1.2610016E2,4.058011E1,2.2040298E1,5.8838272E1,7.321412E1,2.4904707E1,9.61592E1,2.9940958E1,2.9822113E1,1.0757995E1,1.0490182E1,1.1550116E1,3.7162357E1,2.1675915E1,5.657036E0,1.9247673E1,2.112168E1,7.503752E1,6.7056584E0,2.32353E1,1.3083622E1,1.6738491E1,5.57572E0,5.182275E0,5.060334E0,6.489782E0,5.5680523E0,1.6107862E1,9.831599E0,9.416073E0,1.5990364E1,5.131315E0,6.5807594E1,9.229931E0,1.1150694E1,1.2084606E1,5.006534E0,8.077087E0,1.0498937E1,5.608926E0],"tree_param":{"num_deleted":"0","num_feature":"31","num_nodes":"51","size_leaf_vector":"1"}},{"base_weights":[3.2063983E-2,-1.0104283E0,4.8658848E-1,-1.0891695E0,1.8511004E-3,-5.98011E-1,5.3822416E-1,-1.1596037E0,-3.098529E-1,-5.4650106E-2,1.0224778E-2,3.4380502E-1,7.589108E-1,-1.1840544E0,-2.7921606E-2,2.8854707E-2,-5.6516983E-2,5.182026E-1,-4.7273034E-1,6.086213E-2,7.0378333E-1,-1.2674599E0,-9.7624695E-1,7.9242206E-1,2.7356654E-1,1.899054E-2,-7.2655153E-1,-4.800778E-3,7.467595E-1,-3.241217E-2,-6.593842E-2,-2.9646426E-2,-5.6344844E-2,1.467819E-2,4.6203338E-2,-1.7063519E-3,2.7539197E-2,-5.6424566E-2,-7.681278E-3,3.194273E-2,5.7987746E-2],"categories":[],"categories_nodes":[],"categories_segments":[],"categories_sizes":[],"default_left":[0,0,0,0,0,0,0,0,0,0,0,0,0,0,0,0,0,0,0,0,0,0,0,0,0,0,0,0,0,0,0,0,0,0,0,0,0,0,0,0,0],"id":15,"left_children":[1,3,5,7,-1,9,11,13,15,-1,-1,17,19,21,-1,-1,-1,23,25,-1,27,29,31,33,35,-1,37,-1,39,-1,-1,-1,-1,-1,-1,-1,-1,-1,-1,-1,-1],"loss_changes":[1.9855763E2,1.05346985E1,1.6661812E1,6.138397E0,0E0,5.678629E0,1.1711113E1,9.292145E-1,8.785827E0,0E0,0E0,2.1629772E1,2.4244232E0,5.492096E-1,0E0,0E0,0E0,8.116398E0,6.108234E0,0E0,4.1375084E0,1.375557E0,1.2879868E0,3.5404282E0,5.748994E0,0E0,4.688385E0,0E0,4.266739E0,0E0,0E0,0E0,0E0,0E0,0E0,0E0,0E0,0E0,0E0,0E0,0E0],"parents":[2147483647,0,0,1,1,2,2,3,3,5,5,6,6,7,7,8,8,11,11,12,12,13,13,17,17,18,18,20,20,21,21,22,22,23,23,24,24,26,26,28,28],"right_children":[2,4,6,8,-1,10,12,14,16,-1,-1,18,20,22,-1,-1,-1,24,26,-1,28,30,32,34,36,-1,38,-1,40,-1,-1,-1,-1,-1,-1,-1,-1,-1,-1,-1,-1],"split_conditions":[4E0,2E0,1E0,2E0,1.8511004E-3,3.661593E0,1.8E1,1.06565E0,8.44E-2,-5.4650106E-2,1.0224778E-2,3.5E0,3.2578334E-1,3E0,-2.7921606E-2,2.8854707E-2,-5.6516983E-2,3E0,4E0,6.086213E-2,5.829667E-1,1E0,6E0,3E0,4.8811665E-1,1.899054E-2,1.8450333E0,-4.800778E-3,1.9E1,-3.241217E-2,-6.593842E-2,-2.9646426E-2,-5.6344844E-2,1.467819E-2,4.6203338E-2,-1.7063519E-3,2.7539197E-2,-5.6424566E-2,-7.681278E-3,3.194273E-2,5.7987746E-2],"split_indices":[0,2,19,10,0,12,0,5,5,0,0,3,5,25,0,0,0,10,27,0,5,16,25,16,6,0,5,0,21,0,0,0,0,0,0,0,0,0,0,0,0],"split_type":[0,0,0,0,0,0,0,0,0,0,0,0,0,0,0,0,0,0,0,0,0,0,0,0,0,0,0,0,0,0,0,0,0,0,0,0,0,0,0,0,0],"sum_hessian":[4.170033E2,1.26239265E2,2.90764E2,1.1737582E2,8.863449E0,1.2732762E1,2.7803125E2,1.07199234E2,1.0176582E1,7.6513667E0,5.081396E0,1.4917229E2,1.2885898E2,1.0207797E2,5.1212673E0,5.0327826E0,5.1437993E0,1.2322002E2,2.5952265E1,1.1571605E1,1.1728738E2,6.920335E1,3.2874626E1,5.7041454E1,6.617856E1,5.8400807E0,2.0112185E1,5.9179707E0,1.113694E2,6.3387237E0,6.286462E1,1.066756E1,2.2207066E1,1.2584259E1,4.4457195E1,3.1780798E1,3.4397762E1,1.1249988E1,8.862197E0,9.0318436E1,2.1050964E1],"tree_param":{"num_deleted":"0","num_feature":"31","num_nodes":"41","size_leaf_vector":"1"}},{"base_weights":[1.021091E-2,-1.1631644E0,6.80888E-1,-7.122165E-1,-1.1999446E0,7.357846E-1,4.57189E-1,-1.1786361E-2,-5.829236E-2,-6.1490286E-2,-8.834196E-1,5.979083E-1,1.0193064E0,-4.7152147E-2,6.252639E-1,1.0107473E-3,-6.718802E-2,7.7196777E-1,2.4058425E-1,1.1696483E0,7.172905E-1,7.4457085E-1,-1.1743496E-2,3.7295693E-1,8.405855E-1,4.639148E-1,-5.3658206E-2,3.810238E-2,6.1695006E-2,2.020577E-3,1.0513961E0,3.5228634E-1,1.0571178E0,5.154268E-2,-1.5760794E-2,3.5841547E-2,5.9777595E-2,-2.0874168E-4,4.194088E-2,3.525317E-2,6.245486E-2,6.2405247E-2,-1.3120144E-2,5.7955157E-2,2.9565165E-2],"categories":[],"categories_nodes":[],"categories_segments":[],"categories_sizes":[],"default_left":[0,0,0,0,0,0,0,0,0,0,0,0,0,0,0,0,0,0,0,0,0,0,0,0,0,0,0,0,0,0,0,0,0,0,0,0,0,0,0,0,0,0,0,0,0],"id":16,"left_children":[1,3,5,7,9,11,13,-1,-1,-1,15,17,19,-1,21,-1,-1,23,25,27,29,31,-1,33,35,37,-1,-1,-1,-1,39,41,43,-1,-1,-1,-1,-1,-1,-1,-1,-1,-1,-1,-1],"loss_changes":[3.1638983E2,1.5706482E0,2.805046E0,2.6404586E0,1.7762756E-1,7.3558426E0,1.3074166E1,0E0,0E0,0E0,6.2999687E0,8.491386E0,2.1237335E0,0E0,5.0969563E0,0E0,0E0,2.2426643E0,1.43321295E1,1.5908432E-1,5.4465094E0,4.8214073E0,0E0,7.3411646E0,2.607418E0,7.19831E0,0E0,0E0,0E0,0E0,2.2924232E-1,1.1497077E1,4.10923E-1,0E0,0E0,0E0,0E0,0E0,0E0,0E0,0E0,0E0,0E0,0E0,0E0],"parents":[2147483647,0,0,1,1,2,2,3,3,4,4,5,5,6,6,10,10,11,11,12,12,14,14,17,17,18,18,19,19,20,20,21,21,23,23,24,24,25,25,30,30,31,31,32,32],"right_children":[2,4,6,8,10,12,14,-1,-1,-1,16,18,20,-1,22,-1,-1,24,26,28,30,32,-1,34,36,38,-1,-1,-1,-1,40,42,44,-1,-1,-1,-1,-1,-1,-1,-1,-1,-1,-1,-1],"split_conditions":[3E0,1E0,6E0,3.6E1,5.6666665E0,1.1543E0,1.7E1,-1.1786361E-2,-5.829236E-2,-6.1490286E-2,9E0,3E0,4E0,-4.7152147E-2,4.4333332E1,1.0107473E-3,-6.718802E-2,3E1,4.9E1,2.7E1,6.867883E0,1.17E2,-1.1743496E-2,2.1E1,2E0,1.6E1,-5.3658206E-2,3.810238E-2,6.1695006E-2,2.020577E-3,1.8E1,7.9E1,3E0,5.154268E-2,-1.5760794E-2,3.5841547E-2,5.9777595E-2,-2.0874168E-4,4.194088E-2,3.525317E-2,6.245486E-2,6.2405247E-2,-1.3120144E-2,5.7955157E-2,2.9565165E-2],"split_indices":[1,16,30,28,4,5,4,0,0,0,0,4,1,0,4,0,0,28,28,28,5,16,0,28,25,0,0,0,0,0,7,0,19,0,0,0,0,0,0,0,0,0,0,0,0],"split_type":[0,0,0,0,0,0,0,0,0,0,0,0,0,0,0,0,0,0,0,0,0,0,0,0,0,0,0,0,0,0,0,0,0,0,0,0,0,0,0,0,0,0,0,0,0],"sum_hessian":[4.0003616E2,1.4522505E2,2.5481113E2,1.2487291E1,1.3273776E2,2.0276314E2,5.204798E1,6.8313513E0,5.6559396E0,1.1865817E2,1.4079595E1,1.3851323E2,6.4249916E1,5.083822E0,4.696416E1,5.074532E0,9.005062E0,9.236167E1,4.615155E1,4.0978317E1,2.3271595E1,4.1361385E1,5.6027756E0,1.4497022E1,7.7864655E1,3.999883E1,6.1527214E0,7.331161E0,3.3647156E1,8.061139E0,1.5210455E1,1.9284338E1,2.2077047E1,7.1569667E0,7.3400545E0,5.9974674E1,1.7889978E1,1.8228397E1,2.1770433E1,7.1868486E0,8.023607E0,7.42827E0,1.1856069E1,1.6890669E1,5.186377E0],"tree_param":{"num_deleted":"0","num_feature":"31","num_nodes":"45","size_leaf_vector":"1"}},{"base_weights":[6.509406E-2,-9.475821E-1,4.8106027E-1,-1.0164838E0,4.1029574E-3,3.3936146E-1,8.3076775E-1,-7.617441E-1,-1.0986731E0,7.468728E-1,1.6631845E-1,9.6097094E-1,3.9533016E-1,-9.294559E-1,-6.1860457E-3,-1.1315879E0,-3.170296E-2,2.8789103E-1,8.7501365E-1,-5.9147783E-2,2.516307E-1,5.8049377E-2,7.53043E-1,-1.2099118E-2,6.707414E-1,-5.0965365E-2,-2.5275795E-2,-3.6015503E-2,-1.1664469E0,1.8448079E-2,7.506297E-3,2.274609E-3,9.9045235E-1,3.0786505E-1,-3.694627E-2,9.5723873E-1,3.6026627E-1,5.132534E-2,1.1310461E-2,-6.320422E-2,-4.6668142E-2,5.7501704E-2,3.221647E-2,9.477848E-3,4.3891575E-2,5.4981895E-2,2.2150638E-2,-4.569621E-3,4.325365E-2],"categories":[],"categories_nodes":[],"categories_segments":[],"categories_sizes":[],"default_left":[0,0,0,0,0,0,0,0,0,0,0,0,0,0,0,0,0,0,0,0,0,0,0,0,0,0,0,0,0,0,0,0,0,0,0,0,0,0,0,0,0,0,0,0,0,0,0,0,0],"id":17,"left_children":[1,3,5,7,-1,9,11,13,15,17,19,21,23,25,-1,27,-1,29,31,-1,33,-1,35,-1,37,-1,-1,-1,39,-1,-1,-1,41,43,-1,45,47,-1,-1,-1,-1,-1,-1,-1,-1,-1,-1,-1,-1],"loss_changes":[1.7016122E2,8.429115E0,1.3901878E1,1.4731369E0,0E0,1.43591385E1,4.260391E0,3.1138878E0,5.236435E-1,3.3317986E0,1.7041004E1,1.7170258E0,3.7673428E0,3.8905144E-1,0E0,2.2811127E-1,0E0,1.0978341E-1,4.4693527E0,0E0,7.893942E0,0E0,2.333561E0,0E0,2.0777893E0,0E0,0E0,0E0,3.4669495E-1,0E0,0E0,0E0,1.5422058E0,8.66327E0,0E0,1.0775948E0,3.0490983E0,0E0,0E0,0E0,0E0,0E0,0E0,0E0,0E0,0E0,0E0,0E0,0E0],"parents":[2147483647,0,0,1,1,2,2,3,3,5,5,6,6,7,7,8,8,9,9,10,10,11,11,12,12,13,13,15,15,17,17,18,18,20,20,22,22,24,24,28,28,32,32,33,33,35,35,36,36],"right_children":[2,4,6,8,-1,10,12,14,16,18,20,22,24,26,-1,28,-1,30,32,-1,34,-1,36,-1,38,-1,-1,-1,40,-1,-1,-1,42,44,-1,46,48,-1,-1,-1,-1,-1,-1,-1,-1,-1,-1,-1,-1],"split_conditions":[1E0,6E0,4.8E1,4E0,4.1029574E-3,8.333333E-5,6.8E1,2E0,1E0,4E0,5E0,7E0,4.175736E0,9.995E-2,-6.1860457E-3,1E0,-3.170296E-2,1E0,3.5E1,-5.9147783E-2,4E0,5.8049377E-2,9.209766E0,-1.2099118E-2,5.1E1,-5.0965365E-2,-2.5275795E-2,-3.6015503E-2,3E0,1.8448079E-2,7.506297E-3,2.274609E-3,3E0,4.121928E0,-3.694627E-2,2.7E1,4.568278E0,5.132534E-2,1.1310461E-2,-6.320422E-2,-4.6668142E-2,5.7501704E-2,3.221647E-2,9.477848E-3,4.3891575E-2,5.4981895E-2,2.2150638E-2,-4.569621E-3,4.325365E-2],"split_indices":[13,0,17,27,0,5,28,25,21,0,0,9,12,5,0,16,0,16,28,0,9,0,5,0,18,0,0,0,25,0,0,0,10,12,0,4,12,0,0,0,0,0,0,0,0,0,0,0,0],"split_type":[0,0,0,0,0,0,0,0,0,0,0,0,0,0,0,0,0,0,0,0,0,0,0,0,0,0,0,0,0,0,0,0,0,0,0,0,0,0,0,0,0,0,0,0,0,0,0,0,0],"sum_hessian":[4.0187195E2,1.1663768E2,2.8523425E2,1.0933402E2,7.3036547E0,2.0438815E2,8.08461E1,2.917534E1,8.015868E1,5.9932575E1,1.4445558E2,6.130728E1,1.953882E1,2.2740868E1,6.434474E0,7.35151E1,6.643585E0,1.378902E1,4.6143555E1,7.8253846E0,1.366302E2,2.891187E1,3.2395412E1,5.9323964E0,1.3606423E1,1.760519E1,5.1356773E0,7.4368243E0,6.607827E1,7.624211E0,6.164809E0,5.807316E0,4.033624E1,1.299425E2,6.687697E0,2.0368952E1,1.2026461E1,6.830606E0,6.775817E0,4.3452858E1,2.2625416E1,2.601793E1,1.4318309E1,1.0871009E2,2.1232407E1,1.5060089E1,5.308862E0,6.7795997E0,5.246861E0],"tree_param":{"num_deleted":"0","num_feature":"31","num_nodes":"49","size_leaf_vector":"1"}},{"base_weights":[6.041211E-2,-1.0441786E0,6.5381646E-1,-6.3303244E-1,-1.0752624E0,5.520049E-1,1.0273558E0,-6.0162228E-3,-5.6180324E-2,-9.954376E-1,-6.714859E-2,5.802412E-1,-2.3148846E-2,2.2048846E-2,1.1232154E0,-1.042486E0,-9.812304E-3,2.1504828E-1,6.8433934E-1,5.9142273E-2,2.9358774E-2,-1.1476918E0,-8.011793E-1,-4.4306448E-1,4.61916E-1,9.3015426E-1,5.537208E-1,-5.9564747E-2,-2.6195068E-2,-7.5285262E-3,-5.3949744E-2,-5.5150535E-2,2.3433303E-2,3.433048E-2,-3.016263E-3,2.4837948E-2,5.0721865E-2,-1.7008368E-2,3.2913785E-2],"categories":[],"categories_nodes":[],"categories_segments":[],"categories_sizes":[],"default_left":[0,0,0,0,0,0,0,0,0,0,0,0,0,0,0,0,0,0,0,0,0,0,0,0,0,0,0,0,0,0,0,0,0,0,0,0,0,0,0],"id":18,"left_children":[1,3,5,7,9,11,13,-1,-1,15,-1,17,-1,-1,19,21,-1,23,25,-1,-1,27,29,31,33,35,37,-1,-1,-1,-1,-1,-1,-1,-1,-1,-1,-1,-1],"loss_changes":[2.646988E2,1.1231995E0,9.421272E0,2.9717665E0,1.4369049E0,6.2454987E0,2.601387E0,0E0,0E0,3.7001572E0,0E0,7.58329E0,0E0,0E0,7.983246E-1,1.564415E0,0E0,7.7699013E0,4.551056E0,0E0,0E0,1.1662369E0,5.8055954E0,8.466961E0,4.072443E0,1.4422035E0,1.0084454E1,0E0,0E0,0E0,0E0,0E0,0E0,0E0,0E0,0E0,0E0,0E0,0E0],"parents":[2147483647,0,0,1,1,2,2,3,3,4,4,5,5,6,6,9,9,11,11,14,14,15,15,17,17,18,18,21,21,22,22,23,23,24,24,25,25,26,26],"right_children":[2,4,6,8,10,12,14,-1,-1,16,-1,18,-1,-1,20,22,-1,24,26,-1,-1,28,30,32,34,36,38,-1,-1,-1,-1,-1,-1,-1,-1,-1,-1,-1,-1],"split_conditions":[3E0,1E0,1.25E2,3.6E1,2E0,3.3E1,5.5E0,-6.0162228E-3,-5.6180324E-2,5.5E0,-6.714859E-2,3.5E1,-2.3148846E-2,2.2048846E-2,9E0,3E0,-9.812304E-3,1.249E-1,5E0,5.9142273E-2,2.9358774E-2,1.5087167E0,6E0,7.061333E-1,7.5E0,2E0,2.1818334E-1,-5.9564747E-2,-2.6195068E-2,-7.5285262E-3,-5.3949744E-2,-5.5150535E-2,2.3433303E-2,3.433048E-2,-3.016263E-3,2.4837948E-2,5.0721865E-2,-1.7008368E-2,3.2913785E-2],"split_indices":[1,16,16,28,1,18,3,0,0,3,0,28,0,0,25,25,0,5,7,0,0,5,25,6,4,16,6,0,0,0,0,0,0,0,0,0,0,0,0],"split_type":[0,0,0,0,0,0,0,0,0,0,0,0,0,0,0,0,0,0,0,0,0,0,0,0,0,0,0,0,0,0,0,0,0,0,0,0,0,0,0],"sum_hessian":[4.0178964E2,1.4014938E2,2.6164026E2,1.1352692E1,1.2879669E2,2.0754869E2,5.4091553E1,6.160017E0,5.1926746E0,1.0284808E2,2.59486E1,2.0234781E2,5.2008934E0,8.387143E0,4.570441E1,9.684255E1,6.0055337E0,4.556486E1,1.5678294E2,4.0043285E1,5.661125E0,6.48241E1,3.201845E1,1.2212746E1,3.3352116E1,5.227811E1,1.0450484E2,5.9738598E1,5.0855017E0,1.0042402E1,2.197605E1,6.9629164E0,5.2498293E0,2.3099047E1,1.0253068E1,9.633783E0,4.2644325E1,1.070756E1,9.379727E1],"tree_param":{"num_deleted":"0","num_feature":"31","num_nodes":"39","size_leaf_vector":"1"}},{"base_weights":[3.44514E-2,-1.1045946E0,6.4456385E-1,-7.302634E-1,-5.833116E-2,5.8439296E-1,5.4707944E-2,-4.724967E-2,-9.89881E-3,4.9869934E-1,8.3851916E-1,4.6154773E-1,5.129921E-2,9.6011615E-1,5.0485088E-3,4.8839E-1,-8.041493E-3,5.5046976E-2,8.0925095E-1,5.1774133E-2,2.18261E-2,4.7705907E-2,2.324885E-2],"categories":[],"categories_nodes":[],"categories_segments":[],"categories_sizes":[],"default_left":[0,0,0,0,0,0,0,0,0,0,0,0,0,0,0,0,0,0,0,0,0,0,0],"id":19,"left_children":[1,3,5,7,-1,9,-1,-1,-1,11,13,15,-1,17,-1,19,-1,-1,21,-1,-1,-1,-1],"loss_changes":[2.74316E2,2.3452148E0,6.3133698E0,2.3556795E0,0E0,4.564865E0,0E0,0E0,0E0,2.9269104E0,4.946434E0,2.8179703E0,0E0,1.3220215E-1,0E0,4.01577E0,0E0,0E0,9.0418434E-1,0E0,0E0,0E0,0E0],"parents":[2147483647,0,0,1,1,2,2,3,3,5,5,9,9,10,10,11,11,13,13,15,15,18,18],"right_children":[2,4,6,8,-1,10,-1,-1,-1,12,14,16,-1,18,-1,20,-1,-1,22,-1,-1,-1,-1],"split_conditions":[3E0,2E0,1.7250534E1,5.4083332E-2,-5.833116E-2,3E0,5.4707944E-2,-4.724967E-2,-9.89881E-3,6E0,4.427287E0,2E1,5.129921E-2,3E0,5.0485088E-3,9E0,-8.041493E-3,5.5046976E-2,6E0,5.1774133E-2,2.18261E-2,4.7705907E-2,2.324885E-2],"split_indices":[1,27,5,5,0,25,0,0,0,1,12,7,0,10,0,28,0,0,25,0,0,0,0],"split_type":[0,0,0,0,0,0,0,0,0,0,0,0,0,0,0,0,0,0,0,0,0,0,0],"sum_hessian":[3.9270538E2,1.3669429E2,2.5601108E2,2.1246807E1,1.1544748E2,2.2782085E2,2.8190239E1,1.4586945E1,6.6598635E0,1.7258577E2,5.5235073E1,1.6297795E2,9.607823E0,4.7158466E1,8.076606E0,1.5644594E2,6.532011E0,2.1133823E1,2.6024645E1,1.1905504E1,1.4454044E2,1.7070253E1,8.9543915E0],"tree_param":{"num_deleted":"0","num_feature":"31","num_nodes":"23","size_leaf_vector":"1"}},{"base_weights":[8.35546E-3,-1.0021048E0,5.4200816E-1,-9.113723E-1,-6.549611E-2,4.461789E-1,7.56241E-1,-9.851605E-1,3.7398033E-3,5.105674E-1,-5.6338307E-2,6.6425353E-1,5.6088727E-2,-1.0755975E0,-7.5443625E-1,4.581525E-1,1.0771692E0,7.818618E-1,1.6575363E-1,-1.1209319E0,-2.0778665E-2,-1.1553479E-2,-5.119602E-2,5.0160134E-1,-3.1395037E-2,2.8711086E-2,6.531768E-2,9.806102E-1,2.0437503E-1,-3.1143902E-2,5.5165183E-2,-6.14698E-2,-3.9392587E-2,1.8567553E-2,3.991189E-2,1.767268E-2,5.4987527E-2,-8.911915E-3,3.5899177E-2],"categories":[],"categories_nodes":[],"categories_segments":[],"categories_sizes":[],"default_left":[0,0,0,0,0,0,0,0,0,0,0,0,0,0,0,0,0,0,0,0,0,0,0,0,0,0,0,0,0,0,0,0,0,0,0,0,0,0,0],"id":20,"left_children":[1,3,5,7,-1,9,11,13,-1,15,-1,17,-1,19,21,23,25,27,29,31,-1,-1,-1,33,-1,-1,-1,35,37,-1,-1,-1,-1,-1,-1,-1,-1,-1,-1],"loss_changes":[2.1123976E2,2.587494E0,4.9252396E0,7.921974E0,0E0,1.876056E1,1.8704185E0,1.2838287E0,0E0,4.649719E0,0E0,3.65773E0,0E0,1.6224289E0,4.223879E0,7.877182E0,8.5485077E-1,5.7677803E0,1.0743096E1,1.3694458E0,0E0,0E0,0E0,5.6787643E0,0E0,0E0,0E0,2.4821625E0,2.9925988E0,0E0,0E0,0E0,0E0,0E0,0E0,0E0,0E0,0E0,0E0],"parents":[2147483647,0,0,1,1,2,2,3,3,5,5,6,6,7,7,9,9,11,11,13,13,14,14,15,15,16,16,17,17,18,18,19,19,23,23,27,27,28,28],"right_children":[2,4,6,8,-1,10,12,14,-1,16,-1,18,-1,20,22,24,26,28,30,32,-1,-1,-1,34,-1,-1,-1,36,38,-1,-1,-1,-1,-1,-1,-1,-1,-1,-1],"split_conditions":[3E0,2E0,4.8E1,5.5E0,-6.549611E-2,1.7E1,1.8E1,3E0,3.7398033E-3,4E0,-5.6338307E-2,1.14E2,5.6088727E-2,1E0,6E0,2.4E1,3.4E1,5E0,1.285E2,2E0,-2.0778665E-2,-1.1553479E-2,-5.119602E-2,2E0,-3.1395037E-2,2.8711086E-2,6.531768E-2,5.3371625E0,8.6E1,-3.1143902E-2,5.5165183E-2,-6.14698E-2,-3.9392587E-2,1.8567553E-2,3.991189E-2,1.767268E-2,5.4987527E-2,-8.911915E-3,3.5899177E-2],"split_indices":[1,1,17,3,0,22,21,25,0,22,0,22,0,21,25,16,16,21,3,26,0,0,0,2,0,0,0,6,17,0,0,0,0,0,0,0,0,0,0],"split_type":[0,0,0,0,0,0,0,0,0,0,0,0,0,0,0,0,0,0,0,0,0,0,0,0,0,0,0,0,0,0,0,0,0,0,0,0,0,0,0],"sum_hessian":[3.8973257E2,1.3439003E2,2.5534254E2,1.06854324E2,2.7535704E1,1.7855513E2,7.6787415E1,9.941668E1,7.437645E0,1.7218227E2,6.372874E0,6.3599617E1,1.3187796E1,6.879086E1,3.0625818E1,1.5925829E2,1.29239855E1,5.0999233E1,1.2600384E1,6.3716152E1,5.074713E0,1.1040822E1,1.9584995E1,1.5364949E2,5.6087837E0,5.143039E0,7.780946E0,3.7421978E1,1.3577253E1,7.0260053E0,5.574378E0,4.6034496E1,1.7681656E1,1.0833324E2,4.5316257E1,6.6073713E0,3.0814608E1,8.155083E0,5.422171E0],"tree_param":{"num_deleted":"0","num_feature":"31","num_nodes":"39","size_leaf_vector":"1"}},{"base_weights":[7.0353114E-4,-9.468976E-1,5.066623E-1,-9.938013E-1,-4.469702E-1,4.0320268E-1,7.309012E-1,-8.750987E-1,-6.1798573E-2,3.1586685E-3,-3.8591977E-2,4.3967152E-1,-1.582236E-2,5.8759767E-1,6.109035E-2,-7.069432E-1,-1.033935E0,6.7095155E-1,3.096721E-1,8.171237E-1,1.4446041E-1,7.88395E-4,-8.1756985E-1,-5.5653203E-2,-1.967994E-2,2.147967E-3,7.8414655E-1,9.443498E-2,5.790704E-1,6.038942E-2,5.910494E-1,4.7585264E-1,-3.6918264E-2,-3.4830663E-2,-5.678041E-2,4.4116214E-2,1.1395234E-2,1.692119E-2,-2.6902262E-2,3.738186E-3,3.9104063E-2,-3.1186229E-2,4.5598637E-2,4.301104E-2,7.456848E-3],"categories":[],"categories_nodes":[],"categories_segments":[],"categories_sizes":[],"default_left":[0,0,0,0,0,0,0,0,0,0,0,0,0,0,0,0,0,0,0,0,0,0,0,0,0,0,0,0,0,0,0,0,0,0,0,0,0,0,0,0,0,0,0,0,0],"id":21,"left_children":[1,3,5,7,9,11,13,15,-1,-1,-1,17,-1,19,-1,21,23,25,27,29,31,-1,33,-1,-1,-1,35,37,39,-1,41,43,-1,-1,-1,-1,-1,-1,-1,-1,-1,-1,-1,-1,-1],"loss_changes":[1.8097964E2,2.6367416E0,5.414322E0,2.3479843E0,2.2177382E0,4.617033E0,4.6610336E0,1.4989357E0,0E0,0E0,0E0,4.6873074E0,0E0,6.0976677E0,0E0,3.5080185E0,1.6277466E0,4.0698566E0,6.0964804E0,2.8227978E0,6.8073373E0,0E0,6.6809654E-1,0E0,0E0,0E0,2.4667873E0,9.466488E0,4.7450714E0,0E0,1.1220943E1,1.9629152E0,0E0,0E0,0E0,0E0,0E0,0E0,0E0,0E0,0E0,0E0,0E0,0E0,0E0],"parents":[2147483647,0,0,1,1,2,2,3,3,4,4,5,5,6,6,7,7,11,11,13,13,15,15,16,16,17,17,18,18,19,19,20,20,22,22,26,26,27,27,28,28,30,30,31,31],"right_children":[2,4,6,8,10,12,14,16,-1,-1,-1,18,-1,20,-1,22,24,26,28,30,32,-1,34,-1,-1,-1,36,38,40,-1,42,44,-1,-1,-1,-1,-1,-1,-1,-1,-1,-1,-1,-1,-1],"split_conditions":[3E0,6.346525E0,6.9136667E0,1.8476667E-1,8E0,1.6E1,1.8E1,5E0,-6.1798573E-2,3.1586685E-3,-3.8591977E-2,3E0,-1.582236E-2,7E0,6.109035E-2,1E0,5.4083332E-2,2E0,2E0,4.003967E0,4.412117E0,7.88395E-4,4.0833335E-3,-5.5653203E-2,-1.967994E-2,2.147967E-3,8E0,2E0,4E0,6.038942E-2,1.08E2,2.4666666E1,-3.6918264E-2,-3.4830663E-2,-5.678041E-2,4.4116214E-2,1.1395234E-2,1.692119E-2,-2.6902262E-2,3.738186E-3,3.9104063E-2,-3.1186229E-2,4.5598637E-2,4.301104E-2,7.456848E-3],"split_indices":[1,5,6,5,0,21,21,27,0,0,0,10,0,9,0,16,5,16,11,5,12,0,5,0,0,0,7,8,17,0,0,4,0,0,0,0,0,0,0,0,0,0,0,0,0],"split_type":[0,0,0,0,0,0,0,0,0,0,0,0,0,0,0,0,0,0,0,0,0,0,0,0,0,0,0,0,0,0,0,0,0,0,0,0,0,0,0,0,0,0,0,0,0],"sum_hessian":[3.7547504E2,1.3039293E2,2.4508209E2,1.1830552E2,1.2087419E1,1.6962047E2,7.546163E1,8.248707E1,3.5818447E1,5.016124E0,7.071295E0,1.6180968E2,7.810789E0,6.0111156E1,1.53504715E1,4.2715816E1,3.9771255E1,5.6726765E1,1.0508291E2,3.9044064E1,2.1067095E1,5.784407E0,3.6931408E1,3.4740032E1,5.0312233E0,8.874061E0,4.7852703E1,5.916404E1,4.591887E1,1.2720369E1,2.6323692E1,1.56525E1,5.4145956E0,2.9066977E1,7.864432E0,4.0175438E1,7.6772666E0,4.3029633E1,1.6134407E1,1.3572127E1,3.234674E1,5.303836E0,2.1019855E1,6.4414515E0,9.211048E0],"tree_param":{"num_deleted":"0","num_feature":"31","num_nodes":"45","size_leaf_vector":"1"}},{"base_weights":[6.963844E-2,-9.5253164E-1,5.9572893E-1,-1.0060908E0,-3.8596833E-1,4.1860917E-1,8.2834417E-1,-8.968818E-1,-6.1001476E-2,2.3411764E-3,-3.4754E-2,4.8784867E-1,-3.4960173E-2,6.703999E-1,9.9278915E-1,-9.5415473E-1,-2.1692488E-2,7.003441E-1,3.1644627E-1,8.950401E-1,2.5273702E-1,6.150269E-2,8.16788E-1,-1.0250182E0,-2.2823984E-2,-2.2529488E-2,8.3759344E-1,4.3752557E-1,-3.8050386E-1,1.0619973E0,1.4813989E-2,-6.9995224E-2,3.399232E-2,2.688508E-1,5.6755442E-2,-5.5310972E-2,-3.9648276E-2,4.608761E-2,8.308199E-3,1.4561734E-2,4.066476E-2,-5.219868E-2,1.9861465E-2,2.5867611E-2,5.861486E-2,-2.5959266E-2,1.4269394E-2,-1.9571846E-2,3.9079707E-2],"categories":[],"categories_nodes":[],"categories_segments":[],"categories_sizes":[],"default_left":[0,0,0,0,0,0,0,0,0,0,0,0,0,0,0,0,0,0,0,0,0,0,0,0,0,0,0,0,0,0,0,0,0,0,0,0,0,0,0,0,0,0,0,0,0,0,0,0,0],"id":22,"left_children":[1,3,5,7,9,11,13,15,-1,-1,-1,17,-1,19,21,23,-1,25,27,29,31,-1,33,35,-1,-1,37,39,41,43,-1,45,-1,47,-1,-1,-1,-1,-1,-1,-1,-1,-1,-1,-1,-1,-1,-1,-1],"loss_changes":[1.9909181E2,3.4298859E0,9.720474E0,1.5771561E0,1.7034683E0,1.1234062E1,2.0513153E0,1.6935921E0,0E0,0E0,0E0,4.6269608E0,0E0,5.0688305E0,1.0484962E0,1.9969292E0,0E0,9.635992E0,6.5384655E0,3.3146133E0,2.9603922E0,0E0,5.137537E0,2.6047134E-1,0E0,0E0,2.8256798E0,3.325221E0,6.457761E0,1.0756931E0,0E0,2.2143416E0,0E0,4.631712E0,0E0,0E0,0E0,0E0,0E0,0E0,0E0,0E0,0E0,0E0,0E0,0E0,0E0,0E0,0E0],"parents":[2147483647,0,0,1,1,2,2,3,3,4,4,5,5,6,6,7,7,11,11,13,13,14,14,15,15,17,17,18,18,19,19,20,20,22,22,23,23,26,26,27,27,28,28,29,29,31,31,33,33],"right_children":[2,4,6,8,10,12,14,16,-1,-1,-1,18,-1,20,22,24,-1,26,28,30,32,-1,34,36,-1,-1,38,40,42,44,-1,46,-1,48,-1,-1,-1,-1,-1,-1,-1,-1,-1,-1,-1,-1,-1,-1,-1],"split_conditions":[3E0,6.346525E0,1.184925E0,1.8476667E-1,8E0,9.10182E-3,1.29E2,6.603333E-2,-6.1001476E-2,2.3411764E-3,-3.4754E-2,3E0,-3.4960173E-2,5.2243333E0,8.5E1,5E0,-2.1692488E-2,3E1,5.7E1,1.7E1,5.5E1,6.150269E-2,8E0,3E0,-2.2823984E-2,-2.2529488E-2,8E0,4E0,1.3E1,2.7E1,1.4813989E-2,4.7E1,3.399232E-2,1.26E2,5.6755442E-2,-5.5310972E-2,-3.9648276E-2,4.608761E-2,8.308199E-3,1.4561734E-2,4.066476E-2,-5.219868E-2,1.9861465E-2,2.5867611E-2,5.861486E-2,-2.5959266E-2,1.4269394E-2,-1.9571846E-2,3.9079707E-2],"split_indices":[1,5,5,5,0,15,0,5,0,0,0,10,0,5,22,30,0,28,28,22,28,0,11,25,0,0,7,1,0,28,0,17,0,18,0,0,0,0,0,0,0,0,0,0,0,0,0,0,0],"split_type":[0,0,0,0,0,0,0,0,0,0,0,0,0,0,0,0,0,0,0,0,0,0,0,0,0,0,0,0,0,0,0,0,0,0,0,0,0,0,0,0,0,0,0,0,0,0,0,0,0],"sum_hessian":[3.6817325E2,1.2482783E2,2.4334543E2,1.13337845E2,1.1489981E1,1.3974173E2,1.0360369E2,7.8472404E1,3.4865444E1,5.1407967E0,6.3491845E0,1.3212144E2,7.620291E0,5.543595E1,4.816774E1,6.889059E1,9.581816E0,5.7611652E1,7.450979E1,3.530446E1,2.0131493E1,1.7963074E1,3.0204668E1,5.9376423E1,9.514165E0,5.8949847E0,5.1716667E1,6.3798477E1,1.0711309E1,2.7001694E1,8.302764E0,1.194314E1,8.188353E0,1.1777028E1,1.8427639E1,4.1194363E1,1.818206E1,4.5625076E1,6.0915923E0,4.7198616E1,1.6599861E1,5.595535E0,5.1157746E0,5.5057087E0,2.1495985E1,5.071742E0,6.8713975E0,5.251267E0,6.525761E0],"tree_param":{"num_deleted":"0","num_feature":"31","num_nodes":"49","size_leaf_vector":"1"}},{"base_weights":[5.161309E-2,-9.1529584E-1,5.5593944E-1,-6.342751E-1,-1.0221928E0,4.4309095E-1,8.024701E-1,-4.6657112E-1,-5.8879074E-2,-1.0984428E0,-8.273205E-1,4.914296E-1,-2.0048881E-2,5.3747284E-1,9.619541E-1,-7.229827E-1,2.654249E-2,-3.16525E-2,-1.1445936E0,-5.65394E-1,-5.665017E-2,5.309283E-1,-1.6699275E-2,2.9798937E-3,7.597944E-1,2.484432E-2,1.0314503E0,-7.750297E-1,-2.1932827E-2,-3.7201427E-2,-6.0082175E-2,-5.4157447E-2,-2.6230407E-1,3.8358554E-1,8.104931E-1,5.39201E-2,1.6898556E-2,5.6744915E-2,7.573797E-1,-4.3520015E-2,-2.0827062E-2,5.7874634E-3,-2.9254002E-2,2.1484094E-2,-1.3701401E-2,5.0806075E-2,2.3906482E-2,4.912558E-2,1.683278E-2],"categories":[],"categories_nodes":[],"categories_segments":[],"categories_sizes":[],"default_left":[0,0,0,0,0,0,0,0,0,0,0,0,0,0,0,0,0,0,0,0,0,0,0,0,0,0,0,0,0,0,0,0,0,0,0,0,0,0,0,0,0,0,0,0,0,0,0,0,0],"id":23,"left_children":[1,3,5,7,9,11,13,15,-1,17,19,21,-1,23,25,27,-1,-1,29,31,-1,33,-1,-1,35,-1,37,39,-1,-1,-1,-1,41,43,45,-1,-1,-1,47,-1,-1,-1,-1,-1,-1,-1,-1,-1,-1],"loss_changes":[1.8113803E2,3.177391E0,6.4344254E0,2.8882713E0,4.378128E-1,7.1192894E0,2.6698227E0,8.180718E0,0E0,6.089096E-1,1.7244396E0,5.423691E0,0E0,3.2054129E0,9.68029E-1,2.518177E-2,0E0,0E0,3.6845398E-1,2.5254679E0,0E0,6.030796E0,0E0,0E0,2.4305687E0,0E0,2.4401093E-1,3.0595112E-1,0E0,0E0,0E0,0E0,1.606788E0,3.2314787E0,3.0842438E0,0E0,0E0,0E0,9.6422386E-1,0E0,0E0,0E0,0E0,0E0,0E0,0E0,0E0,0E0,0E0],"parents":[2147483647,0,0,1,1,2,2,3,3,4,4,5,5,6,6,7,7,9,9,10,10,11,11,13,13,14,14,15,15,18,18,19,19,21,21,24,24,26,26,27,27,32,32,33,33,34,34,38,38],"right_children":[2,4,6,8,10,12,14,16,-1,18,20,22,-1,24,26,28,-1,-1,30,32,-1,34,-1,-1,36,-1,38,40,-1,-1,-1,-1,42,44,46,-1,-1,-1,48,-1,-1,-1,-1,-1,-1,-1,-1,-1,-1],"split_conditions":[3E0,4E0,6E0,2E0,3E0,4.986425E0,1.6E1,9.1829586E-1,-5.8879074E-2,1E1,2E0,4.412117E0,-2.0048881E-2,4.758167E0,2E0,4E0,2.654249E-2,-3.16525E-2,2E0,3.7E1,-5.665017E-2,1.6060667E0,-1.6699275E-2,2.9798937E-3,6.8E1,2.484432E-2,7E0,2.7516667E-2,-2.1932827E-2,-3.7201427E-2,-6.0082175E-2,-5.4157447E-2,2E0,1.0151E0,3.4182959E0,5.39201E-2,1.6898556E-2,5.6744915E-2,1.2E1,-4.3520015E-2,-2.0827062E-2,5.7874634E-3,-2.9254002E-2,2.1484094E-2,-1.3701401E-2,5.0806075E-2,2.3906482E-2,4.912558E-2,1.683278E-2],"split_indices":[1,27,3,1,25,5,7,12,0,28,26,12,0,5,19,25,0,0,30,28,0,6,0,0,28,0,9,5,0,0,0,0,0,6,12,0,0,0,11,0,0,0,0,0,0,0,0,0,0],"split_type":[0,0,0,0,0,0,0,0,0,0,0,0,0,0,0,0,0,0,0,0,0,0,0,0,0,0,0,0,0,0,0,0,0,0,0,0,0,0,0,0,0,0,0,0,0,0,0,0,0],"sum_hessian":[3.6941678E2,1.26353455E2,2.4306334E2,3.6729385E1,8.962406E1,1.6865802E2,7.440532E1,2.9486473E1,7.2429137E0,6.1085674E1,2.8538391E1,1.5991754E2,8.740473E0,2.959711E1,4.4808205E1,2.3675303E1,5.8111706E0,6.8388295E0,5.4246845E1,1.690383E1,1.1634561E1,1.5295494E2,6.9626017E0,9.800097E0,1.9797012E1,6.884832E0,3.7923374E1,1.8553217E1,5.122086E0,8.513379E0,4.5733467E1,5.291282E0,1.1612549E1,1.017175E2,5.1237446E1,1.0391601E1,9.405413E0,2.525135E1,1.2672023E1,1.3526672E1,5.026544E0,5.643711E0,5.9688373E0,9.537842E1,6.3390765E0,3.0382795E1,2.0854652E1,7.384988E0,5.2870355E0],"tree_param":{"num_deleted":"0","num_feature":"31","num_nodes":"49","size_leaf_vector":"1"}},{"base_weights":[1.11084655E-2,-8.91483E-1,4.751609E-1,-9.4015795E-1,-4.1785318E-1,3.824922E-1,8.368828E-1,-8.2169497E-1,-5.9553456E-2,1.8847168E-3,-3.535215E-2,4.5750406E-1,-6.526504E-2,9.368673E-1,1.6210932E-2,-5.366145E-1,-5.0682332E-2,4.966179E-1,-2.2201847E-2,5.269819E-1,-6.793471E-1,2.3958804E-2,5.381129E-2,2.7360893E-3,-7.39681E-1,4.550092E-1,5.4149747E-2,4.4612624E-4,4.035992E-2,-1.0305692E-1,1.4196507E-2,-2.4232715E-2,-5.5399995E-2,1.6391944E-2,3.3429056E-2],"categories":[],"categories_nodes":[],"categories_segments":[],"categories_sizes":[],"default_left":[0,0,0,0,0,0,0,0,0,0,0,0,0,0,0,0,0,0,0,0,0,0,0,0,0,0,0,0,0,0,0,0,0,0,0],"id":24,"left_children":[1,3,5,7,9,11,13,15,-1,-1,-1,17,19,21,-1,23,-1,25,-1,27,29,-1,-1,-1,31,33,-1,-1,-1,-1,-1,-1,-1,-1,-1],"loss_changes":[1.5076535E2,2.4249802E0,7.6480675E0,2.292015E0,1.7643981E0,6.447489E0,2.1380692E0,3.7227898E0,0E0,0E0,0E0,5.995926E0,1.0647587E1,1.9931259E0,0E0,4.0631275E0,0E0,3.348606E0,0E0,2.1653008E0,1.9655085E1,0E0,0E0,0E0,1.8117752E0,3.8204994E0,0E0,0E0,0E0,0E0,0E0,0E0,0E0,0E0,0E0],"parents":[2147483647,0,0,1,1,2,2,3,3,4,4,5,5,6,6,7,7,11,11,12,12,13,13,15,15,17,17,19,19,20,20,24,24,25,25],"right_children":[2,4,6,8,10,12,14,16,-1,-1,-1,18,20,22,-1,24,-1,26,-1,28,30,-1,-1,-1,32,34,-1,-1,-1,-1,-1,-1,-1,-1,-1],"split_conditions":[3E0,6.47205E0,1.29E2,1.8147779E-1,9.9636E0,9.10182E-3,8E0,3E0,-5.9553456E-2,1.8847168E-3,-3.535215E-2,7.8E1,4E0,1.0693495E1,1.6210932E-2,4E0,-5.0682332E-2,3E0,-2.2201847E-2,3.2776134E0,8.3491826E-1,2.3958804E-2,5.381129E-2,2.7360893E-3,3.8E1,1.6060667E0,5.4149747E-2,4.4612624E-4,4.035992E-2,-1.0305692E-1,1.4196507E-2,-2.4232715E-2,-5.5399995E-2,1.6391944E-2,3.3429056E-2],"split_indices":[1,6,0,6,6,15,9,29,0,0,0,0,1,6,0,27,0,18,0,12,15,0,0,0,28,6,0,0,0,0,0,0,0,0,0],"split_type":[0,0,0,0,0,0,0,0,0,0,0,0,0,0,0,0,0,0,0,0,0,0,0,0,0,0,0,0,0,0,0,0,0,0,0],"sum_hessian":[3.5793954E2,1.21227844E2,2.3671172E2,1.09037094E2,1.2190752E1,1.9007442E2,4.66373E1,7.697136E1,3.206573E1,5.071502E0,7.11925E0,1.627821E2,2.7292316E1,3.8333664E1,8.303631E0,3.2499584E1,4.4471775E1,1.5644385E2,6.3382587E0,1.3965363E1,1.3326953E1,9.983516E0,2.835015E1,8.494335E0,2.4005249E1,1.4773657E2,8.707273E0,5.2644258E0,8.700937E0,5.006118E0,8.320835E0,1.55524645E1,8.452785E0,9.418789E1,5.354868E1],"tree_param":{"num_deleted":"0","num_feature":"31","num_nodes":"35","size_leaf_vector":"1"}},{"base_weights":[3.7222143E-2,-8.703738E-1,4.7584945E-1,-9.220231E-1,-3.7235624E-1,3.5703787E-1,6.893062E-1,-7.932021E-1,-5.9477974E-2,1.3326608E-2,-5.511141E-2,8.7666065E-1,2.8690672E-1,7.996185E-4,7.726071E-1,-9.027673E-1,-4.6531346E-1,1.9097751E-2,1.0373858E0,-2.2963852E-1,4.0672976E-1,9.136508E-1,4.622812E-1,-5.2526362E-2,-5.933375E-1,-2.3797916E-1,-3.5593096E-2,5.9576806E-2,3.2759547E-2,1.2356823E-1,-3.9779212E-2,6.730217E-1,2.664558E-1,7.357815E-1,5.8630217E-2,-2.2654198E-1,5.2542854E-2,6.201699E-3,-4.3743752E-2,6.291882E-3,-2.6496446E-2,-1.24212345E-2,3.1283323E-2,2.2229524E-2,5.0391745E-2,-7.4467935E-2,2.0651828E-2,5.322736E-2,1.4162903E-2,2.7133415E-2,-3.923553E-2],"categories":[],"categories_nodes":[],"categories_segments":[],"categories_sizes":[],"default_left":[0,0,0,0,0,0,0,0,0,0,0,0,0,0,0,0,0,0,0,0,0,0,0,0,0,0,0,0,0,0,0,0,0,0,0,0,0,0,0,0,0,0,0,0,0,0,0,0,0,0,0],"id":25,"left_children":[1,3,5,7,9,11,13,15,-1,-1,-1,17,19,-1,21,23,25,-1,27,29,31,33,35,-1,37,39,-1,-1,-1,41,-1,43,45,47,-1,49,-1,-1,-1,-1,-1,-1,-1,-1,-1,-1,-1,-1,-1,-1,-1],"loss_changes":[1.4570503E2,2.7244873E0,6.0104294E0,2.7572784E0,6.301793E0,5.5995235E0,4.875065E0,2.2916603E0,0E0,0E0,0E0,1.0832005E0,8.941295E0,0E0,2.9708252E0,1.9148407E0,1.0058928E0,0E0,1.2379646E-2,5.606622E0,4.168522E0,1.5450134E0,1.0879999E1,0E0,4.1961894E0,1.38503E0,0E0,0E0,0E0,3.4861212E0,0E0,2.5732536E0,2.0662249E1,4.7082424E0,0E0,5.9717855E0,0E0,0E0,0E0,0E0,0E0,0E0,0E0,0E0,0E0,0E0,0E0,0E0,0E0,0E0,0E0],"parents":[2147483647,0,0,1,1,2,2,3,3,4,4,5,5,6,6,7,7,11,11,12,12,14,14,15,15,16,16,18,18,19,19,20,20,21,21,22,22,24,24,25,25,29,29,31,31,32,32,33,33,35,35],"right_children":[2,4,6,8,10,12,14,16,-1,-1,-1,18,20,-1,22,24,26,-1,28,30,32,34,36,-1,38,40,-1,-1,-1,42,-1,44,46,48,-1,50,-1,-1,-1,-1,-1,-1,-1,-1,-1,-1,-1,-1,-1,-1,-1],"split_conditions":[3E0,6E0,3E0,1.8476667E-1,2E0,4E0,1.8048333E-1,1E0,-5.9477974E-2,1.3326608E-2,-5.511141E-2,1.1216667E-2,5.0183333E-2,7.996185E-4,4.563856E0,3E0,3E0,1.9097751E-2,4E1,8.333333E-5,3.169925E0,4.205728E0,1.6463882E1,-5.2526362E-2,6E0,3.6E1,-3.5593096E-2,5.9576806E-2,3.2759547E-2,2E0,-3.9779212E-2,2.807355E0,1.4E1,3E0,5.8630217E-2,5.503922E0,5.2542854E-2,6.201699E-3,-4.3743752E-2,6.291882E-3,-2.6496446E-2,-1.24212345E-2,3.1283323E-2,2.2229524E-2,5.0391745E-2,-7.4467935E-2,2.0651828E-2,5.322736E-2,1.4162903E-2,2.7133415E-2,-3.923553E-2],"split_indices":[1,3,19,5,1,7,6,19,0,0,0,6,5,0,12,25,0,0,28,5,12,12,5,0,25,28,0,0,0,21,0,12,0,21,0,6,0,0,0,0,0,0,0,0,0,0,0,0,0,0,0],"split_type":[0,0,0,0,0,0,0,0,0,0,0,0,0,0,0,0,0,0,0,0,0,0,0,0,0,0,0,0,0,0,0,0,0,0,0,0,0,0,0,0,0,0,0,0,0,0,0,0,0,0,0],"sum_hessian":[3.6396408E2,1.182663E2,2.4569778E2,1.0638204E2,1.1884255E1,1.5955882E2,8.613895E1,7.4482796E1,3.1899244E1,6.67562E0,5.208635E0,1.760652E1,1.4195232E2,9.614861E0,7.6524086E1,5.4513603E1,1.9969196E1,5.1454554E0,1.2461063E1,2.6555914E1,1.1539639E2,5.127523E1,2.5248861E1,3.5274277E1,1.9239325E1,1.1411899E1,8.557297E0,7.370652E0,5.090411E0,1.6832445E1,9.723469E0,3.8503876E1,7.689252E1,3.267374E1,1.860149E1,1.1917109E1,1.3331752E1,5.5801835E0,1.3659142E1,5.3339305E0,6.077968E0,9.959161E0,6.873285E0,2.4271896E1,1.4231979E1,5.2187824E0,7.167374E1,1.814131E1,1.4532429E1,5.0228734E0,6.8942356E0],"tree_param":{"num_deleted":"0","num_feature":"31","num_nodes":"51","size_leaf_vector":"1"}},{"base_weights":[2.538644E-2,-9.0525174E-1,4.611264E-1,-2.391225E-2,-9.4458085E-1,1.3432105E-1,5.4550725E-1,-7.005689E-1,-1.0343575E0,-7.317103E-2,7.08181E-1,4.2245096E-1,8.216516E-1,-8.920199E-3,-8.509462E-1,-5.5492915E-2,-6.979034E-1,1.3333295E-1,-5.415956E-2,5.2542813E-2,1.568869E-2,3.238523E-1,9.123689E-1,9.1811943E-1,-2.0233805E-3,-3.3361647E-2,-5.6991268E-2,-5.26371E-3,-5.6232583E-2,-3.3402998E-2,3.5354835E-1,6.784085E-1,1.5890919E-1,2.2718072E-2,1.0250261E0,7.851007E-1,6.2160213E-2,2.853784E-2,-1.0539723E-2,1.4678291E-2,3.8483407E-2,1.5407703E-2,-3.6931332E-2,3.1441003E-2,5.8552623E-2,4.5360483E-2,-1.153059E-4],"categories":[],"categories_nodes":[],"categories_segments":[],"categories_sizes":[],"default_left":[0,0,0,0,0,0,0,0,0,0,0,0,0,0,0,0,0,0,0,0,0,0,0,0,0,0,0,0,0,0,0,0,0,0,0,0,0,0,0,0,0,0,0,0,0,0,0],"id":26,"left_children":[1,3,5,-1,7,9,11,13,15,17,19,21,23,-1,25,-1,27,29,-1,-1,-1,31,33,35,-1,-1,-1,-1,-1,-1,37,39,41,-1,43,45,-1,-1,-1,-1,-1,-1,-1,-1,-1,-1,-1],"loss_changes":[1.4080013E2,1.4079361E0,6.4470253E0,0E0,1.4741516E0,5.9873786E0,6.027725E0,2.2112923E0,1.0360184E0,7.969571E0,1.4720325E0,6.0725136E0,4.7585487E0,0E0,4.6544075E-1,0E0,3.8666558E0,5.8904643E0,0E0,0E0,0E0,6.4007444E0,6.454735E-1,1.2336159E0,0E0,0E0,0E0,0E0,0E0,0E0,3.2812772E0,1.0043201E0,1.057711E1,0E0,2.1756744E-1,3.7495651E0,0E0,0E0,0E0,0E0,0E0,0E0,0E0,0E0,0E0,0E0,0E0],"parents":[2147483647,0,0,1,1,2,2,4,4,5,5,6,6,7,7,8,8,9,9,10,10,11,11,12,12,14,14,16,16,17,17,21,21,22,22,23,23,30,30,31,31,32,32,34,34,35,35],"right_children":[2,4,6,-1,8,10,12,14,16,18,20,22,24,-1,26,-1,28,30,-1,-1,-1,32,34,36,-1,-1,-1,-1,-1,-1,38,40,42,-1,44,46,-1,-1,-1,-1,-1,-1,-1,-1,-1,-1,-1],"split_conditions":[3E0,1E0,3.5E1,-2.391225E-2,4E0,1.975E1,2E0,2E0,1E0,7.5E0,8.068571E0,1.33E2,1.12E2,-8.920199E-3,3E0,-5.5492915E-2,2E0,2E0,-5.415956E-2,5.2542813E-2,1.568869E-2,5E0,2E0,3.2E1,-2.0233805E-3,-3.3361647E-2,-5.6991268E-2,-5.26371E-3,-5.6232583E-2,-3.3402998E-2,1.1E1,2E0,7.9E1,2.2718072E-2,7E0,2.1E1,6.2160213E-2,2.853784E-2,-1.0539723E-2,1.4678291E-2,3.8483407E-2,1.5407703E-2,-3.6931332E-2,3.1441003E-2,5.8552623E-2,4.5360483E-2,-1.153059E-4],"split_indices":[1,16,28,0,27,4,25,29,21,4,6,0,22,0,0,0,1,4,0,0,0,7,19,4,0,0,0,0,0,0,7,16,28,0,11,4,0,0,0,0,0,0,0,0,0,0,0],"split_type":[0,0,0,0,0,0,0,0,0,0,0,0,0,0,0,0,0,0,0,0,0,0,0,0,0,0,0,0,0,0,0,0,0,0,0,0,0,0,0,0,0,0,0,0,0,0,0],"sum_hessian":[3.4518268E2,1.09735634E2,2.3544705E2,1.0364582E1,9.937105E1,4.8848747E1,1.865983E2,2.9094921E1,7.027613E1,3.651751E1,1.233124E1,1.308281E2,5.5770206E1,6.9943495E0,2.2100573E1,5.5518925E1,1.4757204E1,3.1039341E1,5.478168E0,5.707749E0,6.623491E0,1.1029222E2,2.0535877E1,5.0099327E1,5.67088E0,1.5532427E1,6.568145E0,6.6998096E0,8.057395E0,6.252393E0,2.4786947E1,3.4029835E1,7.626238E1,5.04768E0,1.5488196E1,3.797551E1,1.21238165E1,1.7889961E1,6.896987E0,7.331142E0,2.6698692E1,6.595231E1,1.0310075E1,5.6000576E0,9.888139E0,3.2745308E1,5.230202E0],"tree_param":{"num_deleted":"0","num_feature":"31","num_nodes":"47","size_leaf_vector":"1"}},{"base_weights":[3.2618497E-2,-8.261833E-1,4.262923E-1,-6.712001E-1,-1.0143759E0,1.2270029E-1,5.2525294E-1,-4.5225307E-1,-9.374253E-1,-2.706015E-2,-1.0749718E0,4.2317587E-1,-2.7790046E-1,4.8079702E-1,9.056017E-1,1.5383654E-2,-6.748038E-1,-5.7087887E-2,-2.0153973E-2,-5.8133658E-2,-3.5942525E-2,4.0271934E-2,7.4885166E-1,-8.956848E-1,3.7620223E-1,5.1397985E-1,-1.3031934E-2,2.6979739E-2,5.4593217E-2,-6.3679214E-3,9.927909E-3,-4.4351917E-2,-8.70674E-3,-3.0751942E-2,4.7112446E-2,9.472886E-1,1.5615952E-2,-1.4742103E-2,-6.186383E-2,3.8390752E-2,-6.1870716E-3,6.561717E-1,3.9133137E-1,3.0399276E-2,5.8492612E-2,9.506554E-3,3.6020428E-2,4.975301E-2,1.4483491E-2],"categories":[],"categories_nodes":[],"categories_segments":[],"categories_sizes":[],"default_left":[0,0,0,0,0,0,0,0,0,0,0,0,0,0,0,0,0,0,0,0,0,0,0,0,0,0,0,0,0,0,0,0,0,0,0,0,0,0,0,0,0,0,0,0,0,0,0,0,0],"id":27,"left_children":[1,3,5,7,9,11,13,15,17,-1,19,21,23,25,27,29,31,-1,-1,-1,-1,33,35,37,39,41,-1,-1,-1,-1,-1,-1,-1,-1,-1,43,-1,-1,-1,-1,-1,45,47,-1,-1,-1,-1,-1,-1],"loss_changes":[1.1953979E2,2.5609665E0,7.2177353E0,3.3011742E0,8.013725E-1,7.4471445E0,2.6503525E0,3.861052E0,2.5868816E0,0E0,4.681511E-1,4.3581543E0,1.1126751E1,4.206463E0,6.3566494E-1,3.627969E-1,2.5117388E0,0E0,0E0,0E0,0E0,1.0764273E1,1.3464813E0,2.5142612E0,2.7720826E0,2.512188E0,0E0,0E0,0E0,0E0,0E0,0E0,0E0,0E0,0E0,2.359066E-1,0E0,0E0,0E0,0E0,0E0,2.020031E0,5.095854E0,0E0,0E0,0E0,0E0,0E0,0E0],"parents":[2147483647,0,0,1,1,2,2,3,3,4,4,5,5,6,6,7,7,8,8,10,10,11,11,12,12,13,13,14,14,15,15,16,16,21,21,22,22,23,23,24,24,25,25,35,35,41,41,42,42],"right_children":[2,4,6,8,10,12,14,16,18,-1,20,22,24,26,28,30,32,-1,-1,-1,-1,34,36,38,40,42,-1,-1,-1,-1,-1,-1,-1,-1,-1,44,-1,-1,-1,-1,-1,46,48,-1,-1,-1,-1,-1,-1],"split_conditions":[3E0,5E0,3.9028335E-1,7.1266666E-2,2E0,6E0,5.35E1,2E0,6.346525E0,-2.706015E-2,5.4E1,1E0,9.126667E-2,2.303136E0,4E0,1.5E0,4E0,-5.7087887E-2,-2.0153973E-2,-5.8133658E-2,-3.5942525E-2,7.8E1,1.3234444E-1,3E0,3.6E1,4E0,-1.3031934E-2,2.6979739E-2,5.4593217E-2,-6.3679214E-3,9.927909E-3,-4.4351917E-2,-8.70674E-3,-3.0751942E-2,4.7112446E-2,7.187222E-2,1.5615952E-2,-1.4742103E-2,-6.186383E-2,3.8390752E-2,-6.1870716E-3,2E0,2.6758334E-1,3.0399276E-2,5.8492612E-2,9.506554E-3,3.6020428E-2,4.975301E-2,1.4483491E-2],"split_indices":[1,27,6,5,30,0,3,29,5,0,28,21,5,15,10,3,25,0,0,0,0,28,6,10,28,21,0,0,0,0,0,0,0,0,0,6,0,0,0,0,0,12,5,0,0,0,0,0,0],"split_type":[0,0,0,0,0,0,0,0,0,0,0,0,0,0,0,0,0,0,0,0,0,0,0,0,0,0,0,0,0,0,0,0,0,0,0,0,0,0,0,0,0,0,0,0,0,0,0,0,0],"sum_hessian":[3.5153445E2,1.10147766E2,2.4138667E2,6.290766E1,4.72401E1,5.9891403E1,1.8149527E2,3.5999756E1,2.6907906E1,6.490359E0,4.0749744E1,3.419024E1,2.5701166E1,1.645289E2,1.6966375E1,1.1908271E1,2.4091486E1,1.8642372E1,8.265533E0,3.0880127E1,9.8696165E0,1.623089E1,1.7959347E1,1.3027588E1,1.2673578E1,1.577745E2,6.754399E0,7.0365276E0,9.929848E0,6.8640504E0,5.0442204E0,1.6377378E1,7.7141075E0,9.585144E0,6.645746E0,1.1542419E1,6.416928E0,5.3972464E0,7.630342E0,6.806304E0,5.8672748E0,7.105144E1,8.672306E1,6.0503173E0,5.492102E0,9.086741E0,6.1964695E1,1.1232081E1,7.549098E1],"tree_param":{"num_deleted":"0","num_feature":"31","num_nodes":"49","size_leaf_vector":"1"}},{"base_weights":[2.7176265E-2,-8.753961E-1,4.511443E-1,-9.1404843E-1,-1.9433234E-2,4.0048143E-1,8.856129E-1,-7.3838264E-1,-5.8503885E-2,4.24834E-1,-2.1048917E-2,5.199476E-2,1.7615946E-2,-8.9145684E-1,-3.0389193E-1,4.5923153E-1,-1.14765726E-1,-4.746423E-2,-1.825956E-2,-2.6000096E-2,8.64193E-3,3.668648E-1,9.170132E-1,3.9976932E-2,-5.251133E-2,2.108725E-2,-4.173093E-2,5.5354785E-2,3.3951E-2],"categories":[],"categories_nodes":[],"categories_segments":[],"categories_sizes":[],"default_left":[0,0,0,0,0,0,0,0,0,0,0,0,0,0,0,0,0,0,0,0,0,0,0,0,0,0,0,0,0],"id":28,"left_children":[1,3,5,7,-1,9,11,13,-1,15,-1,-1,-1,17,19,21,23,-1,-1,-1,-1,25,27,-1,-1,-1,-1,-1,-1],"loss_changes":[1.280094E2,1.6563568E0,4.654381E0,3.5579987E0,0E0,4.292343E0,1.5210361E0,3.78759E0,0E0,3.7686653E0,0E0,0E0,0E0,1.0108376E0,1.8840473E0,7.6301155E0,1.1785368E1,0E0,0E0,0E0,0E0,1.0799215E1,6.490879E-1,0E0,0E0,0E0,0E0,0E0,0E0],"parents":[2147483647,0,0,1,1,2,2,3,3,5,5,6,6,7,7,9,9,13,13,14,14,15,15,16,16,21,21,22,22],"right_children":[2,4,6,8,-1,10,12,14,-1,16,-1,-1,-1,18,20,22,24,-1,-1,-1,-1,26,28,-1,-1,-1,-1,-1,-1],"split_conditions":[3E0,7.790983E0,3.45E1,7.1266666E-2,-1.9433234E-2,3.7E1,1.45E2,1E0,-5.8503885E-2,1.35E1,-2.1048917E-2,5.199476E-2,1.7615946E-2,9E0,2.1333334E-3,6.1E1,5.602571E-1,-4.746423E-2,-1.825956E-2,-2.6000096E-2,8.64193E-3,1.4E1,7E1,3.9976932E-2,-5.251133E-2,2.108725E-2,-4.173093E-2,5.5354785E-2,3.3951E-2],"split_indices":[1,5,3,5,0,4,17,19,0,3,0,0,0,25,5,0,15,0,0,0,0,17,22,0,0,0,0,0,0],"split_type":[0,0,0,0,0,0,0,0,0,0,0,0,0,0,0,0,0,0,0,0,0,0,0,0,0,0,0,0,0],"sum_hessian":[3.3249152E2,1.05925415E2,2.2656609E2,9.731917E1,8.606249E0,2.0462659E2,2.1939497E1,6.0021465E1,3.7297703E1,1.9920392E2,5.422674E0,1.6279797E1,5.659702E0,4.3606762E1,1.6414703E1,1.8740639E2,1.1797525E1,3.8565277E1,5.0414853E0,1.1232194E1,5.182509E0,1.574409E2,2.9965488E1,6.03971E0,5.7578154E0,1.5118423E2,6.2566657E0,1.4629374E1,1.5336116E1],"tree_param":{"num_deleted":"0","num_feature":"31","num_nodes":"29","size_leaf_vector":"1"}},{"base_weights":[3.5612203E-2,-7.98193E-1,4.2540285E-1,-8.561771E-1,-2.6211962E-1,3.0182308E-1,6.750262E-1,-7.3012567E-1,-5.6766268E-2,5.847652E-3,-2.8353183E-2,3.6877277E-1,-7.606661E-2,5.475517E-1,5.700108E-2,-9.057255E-1,-3.144158E-1,2.6999852E-1,8.528614E-1,-7.3808086E-1,4.6397078E-1,8.088125E-1,2.1634007E-1,-5.6108218E-2,-5.001673E-1,-5.833869E-1,4.919955E-3,4.1103777E-1,-1.7304564E-1,1.1372106E0,-3.5290816E-3,-1.5175435E-3,-6.576186E-2,-4.100082E-3,4.3918714E-2,9.4503945E-1,1.7054643E-2,4.5843053E-1,-3.7383348E-2,7.943638E-3,-3.9839488E-2,6.6250297E-3,-5.3699154E-2,8.702154E-3,2.9759401E-2,-5.3794958E-2,5.2788267E-3,3.4091834E-2,6.428681E-2,3.1016251E-2,5.8863897E-2,9.0792915E-3,4.617178E-2],"categories":[],"categories_nodes":[],"categories_segments":[],"categories_sizes":[],"default_left":[0,0,0,0,0,0,0,0,0,0,0,0,0,0,0,0,0,0,0,0,0,0,0,0,0,0,0,0,0,0,0,0,0,0,0,0,0,0,0,0,0,0,0,0,0,0,0,0,0,0,0,0,0],"id":29,"left_children":[1,3,5,7,9,11,13,15,-1,-1,-1,17,19,21,-1,23,25,27,29,31,33,35,37,-1,39,41,-1,43,45,47,-1,-1,-1,-1,-1,49,-1,51,-1,-1,-1,-1,-1,-1,-1,-1,-1,-1,-1,-1,-1,-1,-1],"loss_changes":[1.08996735E2,3.0968552E0,6.8442154E0,2.5482788E0,1.4384956E0,3.9400167E0,3.812252E0,4.746517E0,0E0,0E0,0E0,6.058651E0,8.958714E0,5.0746155E0,0E0,3.645382E0,2.5001442E0,6.9883547E0,5.811207E0,4.540467E0,3.2140272E0,1.8152733E0,6.904582E0,0E0,3.7392201E0,4.8713365E0,0E0,3.5739536E0,7.014854E0,2.559185E-1,0E0,0E0,0E0,0E0,0E0,1.18643E0,0E0,2.8051896E0,0E0,0E0,0E0,0E0,0E0,0E0,0E0,0E0,0E0,0E0,0E0,0E0,0E0,0E0,0E0],"parents":[2147483647,0,0,1,1,2,2,3,3,4,4,5,5,6,6,7,7,11,11,12,12,13,13,15,15,16,16,17,17,18,18,19,19,20,20,21,21,22,22,24,24,25,25,27,27,28,28,29,29,35,35,37,37],"right_children":[2,4,6,8,10,12,14,16,-1,-1,-1,18,20,22,-1,24,26,28,30,32,34,36,38,-1,40,42,-1,44,46,48,-1,-1,-1,-1,-1,50,-1,52,-1,-1,-1,-1,-1,-1,-1,-1,-1,-1,-1,-1,-1,-1,-1],"split_conditions":[3E0,6.346525E0,6.9136667E0,1.8476667E-1,8E0,4.003967E0,1.8E1,1E0,-5.6766268E-2,5.847652E-3,-2.8353183E-2,1.184925E0,4.7E1,4E0,5.700108E-2,3E0,3.7E-3,3.75E0,2.8E1,2E0,4.3946667E0,1.18E2,1.45E1,-5.6108218E-2,6E0,3.6E1,4.919955E-3,1.8048333E-1,3.604704E0,5E0,-3.5290816E-3,-1.5175435E-3,-6.576186E-2,-4.100082E-3,4.3918714E-2,6E0,1.7054643E-2,4.1E1,-3.7383348E-2,7.943638E-3,-3.9839488E-2,6.6250297E-3,-5.3699154E-2,8.702154E-3,2.9759401E-2,-5.3794958E-2,5.2788267E-3,3.4091834E-2,6.428681E-2,3.1016251E-2,5.8863897E-2,9.0792915E-3,4.617178E-2],"split_indices":[1,5,6,5,0,6,21,19,0,0,0,5,17,9,0,25,5,4,0,19,5,18,3,0,25,28,0,6,12,4,0,0,0,0,0,17,0,18,0,0,0,0,0,0,0,0,0,0,0,0,0,0,0],"split_type":[0,0,0,0,0,0,0,0,0,0,0,0,0,0,0,0,0,0,0,0,0,0,0,0,0,0,0,0,0,0,0,0,0,0,0,0,0,0,0,0,0,0,0,0,0,0,0,0,0,0,0,0,0],"sum_hessian":[3.3332007E2,1.058492E2,2.2747086E2,9.4978745E1,1.0870449E1,1.5362541E2,7.384545E1,6.792312E1,2.7055628E1,5.1210294E0,5.7494197E0,1.305248E2,2.3100605E1,5.9666058E1,1.4179394E1,4.6923454E1,2.0999666E1,1.0969932E2,2.0825485E1,1.0213493E1,1.2887111E1,3.254918E1,2.7116877E1,2.94432E1,1.7480255E1,1.2464912E1,8.534753E0,8.32649E1,2.6434416E1,1.5745574E1,5.0799103E0,5.060595E0,5.1528983E0,5.9069223E0,6.980189E0,2.4417011E1,8.132168E0,2.2093103E1,5.023773E0,5.5697327E0,1.19105215E1,5.365455E0,7.0994573E0,3.725901E1,4.600589E1,5.5590963E0,2.0875319E1,5.2475333E0,1.049804E1,1.1712179E1,1.2704833E1,1.4719955E1,7.373147E0],"tree_param":{"num_deleted":"0","num_feature":"31","num_nodes":"53","size_leaf_vector":"1"}},{"base_weights":[-6.577553E-3,-7.691752E-1,2.6881063E-1,-5.291906E-1,-1.0351706E0,1.2678178E-1,5.973082E-1,-2.877186E-1,-5.37557E-2,-5.5957764E-2,-3.2250382E-2,3.1379247E-1,-2.7510872E-1,1.0196556E0,4.4555E-1,-1.5508193E-1,-3.0070534E-2,4.188632E-1,-7.484272E-2,-6.742091E-1,-3.015998E-2,3.757117E-2,6.382285E-2,2.2119898E-1,8.5494304E-1,-2.7012695E-2,6.807253E-3,7.417545E-1,3.4196037E-1,-5.749579E-1,4.0127805E-1,6.0717354E-4,-1.0186603E0,3.8903525E-1,-6.132521E-1,-2.9168022E-1,6.215613E-1,2.4785755E-2,5.2666403E-2,1.4605315E-2,-6.8951766E-3,4.75074E-2,1.959297E-2,1.2753031E-2,3.8997095E-2,-5.0043175E-3,-5.305882E-2,-9.116696E-3,5.5178314E-2,-7.680907E-2,-1.4181596E-2,3.9396662E-2,-7.054181E-3,-6.5721355E-2,-6.0643E-3,1.3564743E-2,-5.2663E-2,1.1563474E-2,4.8125967E-2],"categories":[],"categories_nodes":[],"categories_segments":[],"categories_sizes":[],"default_left":[0,0,0,0,0,0,0,0,0,0,0,0,0,0,0,0,0,0,0,0,0,0,0,0,0,0,0,0,0,0,0,0,0,0,0,0,0,0,0,0,0,0,0,0,0,0,0,0,0,0,0,0,0,0,0,0,0,0,0],"id":30,"left_children":[1,3,5,7,9,11,13,15,-1,-1,-1,17,19,21,23,25,-1,27,29,31,33,-1,-1,35,37,-1,39,41,43,45,47,-1,49,51,53,55,57,-1,-1,-1,-1,-1,-1,-1,-1,-1,-1,-1,-1,-1,-1,-1,-1,-1,-1,-1,-1,-1,-1],"loss_changes":[6.889015E1,5.0076103E0,1.1169312E1,5.991493E0,5.964203E-1,1.282836E1,4.191437E0,1.3423543E0,0E0,0E0,0E0,4.7749033E0,5.2949076E0,3.0716324E-1,4.871578E0,1.5998459E0,0E0,2.020773E0,6.3195524E0,4.8900385E0,8.729809E0,0E0,0E0,7.7669363E0,8.430376E-1,0E0,8.2514596E-1,8.500061E-1,2.6872597E0,2.8681965E0,5.8117127E0,0E0,4.794425E0,4.5141816E0,4.9863777E0,7.5213394E0,2.5807571E0,0E0,0E0,0E0,0E0,0E0,0E0,0E0,0E0,0E0,0E0,0E0,0E0,0E0,0E0,0E0,0E0,0E0,0E0,0E0,0E0,0E0,0E0],"parents":[2147483647,0,0,1,1,2,2,3,3,4,4,5,5,6,6,7,7,11,11,12,12,13,13,14,14,15,15,17,17,18,18,19,19,20,20,23,23,24,24,26,26,27,27,28,28,29,29,30,30,32,32,33,33,34,34,35,35,36,36],"right_children":[2,4,6,8,10,12,14,16,-1,-1,-1,18,20,22,24,26,-1,28,30,32,34,-1,-1,36,38,-1,40,42,44,46,48,-1,50,52,54,56,58,-1,-1,-1,-1,-1,-1,-1,-1,-1,-1,-1,-1,-1,-1,-1,-1,-1,-1,-1,-1,-1,-1],"split_conditions":[4E0,3E0,4.1586905E0,1.8147779E-1,4E0,3.5E0,4.3281803E0,2E0,-5.37557E-2,-5.5957764E-2,-3.2250382E-2,5.6E1,6E0,7.1E1,1.9E1,2E0,-3.0070534E-2,4E0,2E0,2.8E1,7.5E0,3.757117E-2,6.382285E-2,6E0,1.7E1,-2.7012695E-2,2E0,3E0,2E1,3.4990555E-1,6E0,6.0717354E-4,2E0,1.2E1,1.1E1,7.783561E0,6E0,2.4785755E-2,5.2666403E-2,1.4605315E-2,-6.8951766E-3,4.75074E-2,1.959297E-2,1.2753031E-2,3.8997095E-2,-5.0043175E-3,-5.305882E-2,-9.116696E-3,5.5178314E-2,-7.680907E-2,-1.4181596E-2,3.9396662E-2,-7.054181E-3,-6.5721355E-2,-6.0643E-3,1.3564743E-2,-5.2663E-2,1.1563474E-2,4.8125967E-2],"split_indices":[0,29,12,6,25,3,12,26,0,0,0,28,4,17,21,0,0,7,19,28,3,0,0,19,4,0,7,19,0,6,7,0,11,7,7,6,11,0,0,0,0,0,0,0,0,0,0,0,0,0,0,0,0,0,0,0,0,0,0],"split_type":[0,0,0,0,0,0,0,0,0,0,0,0,0,0,0,0,0,0,0,0,0,0,0,0,0,0,0,0,0,0,0,0,0,0,0,0,0,0,0,0,0,0,0,0,0,0,0,0,0,0,0,0,0,0,0,0,0,0,0],"sum_hessian":[3.2604758E2,8.602802E1,2.4001956E2,4.6796803E1,3.923122E1,1.6853702E2,7.1482544E1,3.3504272E1,1.329253E1,3.0744806E1,8.486415E0,1.1516622E2,5.3370796E1,1.738385E1,5.4098698E1,2.4598011E1,8.906262E0,9.059526E1,2.4570957E1,1.963181E1,3.3738987E1,1.0422993E1,6.9608574E0,3.5942303E1,1.8156393E1,6.5875406E0,1.8010471E1,1.5763568E1,7.4831696E1,1.18822775E1,1.2688681E1,6.8825006E0,1.2749309E1,1.9821655E1,1.3917332E1,1.5876004E1,2.00663E1,7.7043695E0,1.04520235E1,5.718273E0,1.2292197E1,8.804301E0,6.959267E0,6.3762875E1,1.1068817E1,6.6213226E0,5.2609544E0,7.3342123E0,5.3544683E0,6.8420053E0,5.9073033E0,1.103319E1,8.788466E0,5.049188E0,8.868143E0,9.498383E0,6.3776217E0,1.0138797E1,9.927503E0],"tree_param":{"num_deleted":"0","num_feature":"31","num_nodes":"59","size_leaf_vector":"1"}},{"base_weights":[9.5003005E-3,-8.7158585E-1,3.9360958E-1,-9.447327E-1,-2.5836727E-1,2.641754E-1,6.971249E-1,-8.1282675E-1,-5.6773532E-2,4.8590237E-3,-2.7073948E-2,4.8061094E-1,1.4178182E-1,8.865965E-1,4.4190872E-1,-2.5449062E-2,-8.855307E-1,-5.369081E-3,5.880815E-1,-2.510678E-1,2.7648085E-1,5.445812E-2,6.658743E-1,8.92366E-1,1.2710185E-1,-7.398418E-1,-5.496913E-2,7.5575906E-1,1.1881958E-1,-5.147499E-1,2.8118089E-2,6.944548E-1,1.5239394E-1,1.2557154E-2,4.431476E-2,2.7399747E-2,5.5895794E-2,-3.9204657E-2,5.222229E-1,-1.7535402E-2,-4.5488264E-2,4.3742444E-2,1.9991634E-2,-2.8611569E-2,3.0308975E-2,-8.128685E-3,-5.181838E-2,1.8213311E-2,4.8103344E-2,-4.6237763E-3,2.9965043E-2,4.1369006E-2,-1.0002848E-3],"categories":[],"categories_nodes":[],"categories_segments":[],"categories_sizes":[],"default_left":[0,0,0,0,0,0,0,0,0,0,0,0,0,0,0,0,0,0,0,0,0,0,0,0,0,0,0,0,0,0,0,0,0,0,0,0,0,0,0,0,0,0,0,0,0,0,0,0,0,0,0,0,0],"id":31,"left_children":[1,3,5,7,9,11,13,15,-1,-1,-1,17,19,21,23,-1,25,-1,27,29,31,-1,33,35,37,39,-1,41,43,45,-1,47,49,-1,-1,-1,-1,-1,51,-1,-1,-1,-1,-1,-1,-1,-1,-1,-1,-1,-1,-1,-1],"loss_changes":[1.1088391E2,4.2177887E0,8.7788315E0,1.3035736E0,1.2582681E0,4.2114706E0,2.8769836E0,7.8273773E-1,0E0,0E0,0E0,3.7244139E0,5.6052704E0,9.6491814E-1,4.253624E0,0E0,5.4824066E-1,0E0,3.77676E0,6.1311173E0,3.959332E0,0E0,1.6663704E0,3.584814E-1,7.355701E0,1.601944E0,0E0,1.1768684E0,5.1033263E0,3.7058058E0,0E0,1.210145E0,6.809492E0,0E0,0E0,0E0,0E0,0E0,2.3426476E0,0E0,0E0,0E0,0E0,0E0,0E0,0E0,0E0,0E0,0E0,0E0,0E0,0E0,0E0],"parents":[2147483647,0,0,1,1,2,2,3,3,4,4,5,5,6,6,7,7,11,11,12,12,13,13,14,14,16,16,18,18,19,19,20,20,22,22,23,23,24,24,25,25,27,27,28,28,29,29,31,31,32,32,38,38],"right_children":[2,4,6,8,10,12,14,16,-1,-1,-1,18,20,22,24,-1,26,-1,28,30,32,-1,34,36,38,40,-1,42,44,46,-1,48,50,-1,-1,-1,-1,-1,52,-1,-1,-1,-1,-1,-1,-1,-1,-1,-1,-1,-1,-1,-1],"split_conditions":[3E0,6.346525E0,6.9136667E0,7.1266666E-2,3.9E1,3E0,4E0,2E0,-5.6773532E-2,4.8590237E-3,-2.7073948E-2,8.5E-4,9.995E-2,8.585867E0,3.6E1,-2.5449062E-2,5.6E1,-5.369081E-3,2.5E0,2E0,2.6624167E-1,5.445812E-2,5E1,2.7E1,4E0,5E0,-5.496913E-2,7.1E1,5.2095E-1,2E-4,2.8118089E-2,5E0,6E0,1.2557154E-2,4.431476E-2,2.7399747E-2,5.5895794E-2,-3.9204657E-2,1.06E2,-1.7535402E-2,-4.5488264E-2,4.3742444E-2,1.9991634E-2,-2.8611569E-2,3.0308975E-2,-8.128685E-3,-5.181838E-2,1.8213311E-2,4.8103344E-2,-4.6237763E-3,2.9965043E-2,4.1369006E-2,-1.0002848E-3],"split_indices":[1,5,6,5,28,10,9,27,0,0,0,6,5,5,28,0,28,0,3,2,5,0,3,28,10,27,0,28,5,5,0,27,3,0,0,0,0,0,17,0,0,0,0,0,0,0,0,0,0,0,0,0,0],"split_type":[0,0,0,0,0,0,0,0,0,0,0,0,0,0,0,0,0,0,0,0,0,0,0,0,0,0,0,0,0,0,0,0,0,0,0,0,0,0,0,0,0,0,0,0,0,0,0,0,0,0,0,0,0],"sum_hessian":[3.2562515E2,9.847345E1,2.2715169E2,8.7496E1,1.097745E1,1.6055385E2,6.659784E1,5.4835594E1,3.2660408E1,5.157327E0,5.820123E0,5.6938858E1,1.0361499E2,3.6802147E1,2.979569E1,1.2132403E1,4.2703194E1,8.7989435E0,4.8139915E1,2.6235437E1,7.7379555E1,1.7138708E1,1.9663439E1,1.150234E1,1.829335E1,2.8052032E1,1.4651159E1,3.5017036E1,1.3122879E1,2.0090174E1,6.1452637E0,1.666127E1,6.071829E1,7.5663714E0,1.2097068E1,5.9094086E0,5.5929313E0,5.235422E0,1.3057929E1,9.457584E0,1.8594448E1,2.5145592E1,9.871444E0,5.3552575E0,7.7676215E0,1.2775988E1,7.314185E0,8.515608E0,8.145661E0,3.9738064E1,2.0980223E1,8.019052E0,5.0388775E0],"tree_param":{"num_deleted":"0","num_feature":"31","num_nodes":"53","size_leaf_vector":"1"}},{"base_weights":[-1.9453691E-2,-8.591453E-1,3.6017096E-1,-9.313431E-1,-3.1698757E-1,-3.0333027E-2,4.428354E-1,-1.9672858E-2,-9.946392E-1,1.6889445E-2,-5.2256048E-2,3.7376687E-1,-7.8446746E-1,3.142362E-1,6.4748335E-1,-8.571326E-1,-5.669728E-2,4.5170788E-2,-2.6266044E-1,-6.737434E-2,-6.9468245E-3,2.3523872E-1,5.4606326E-2,8.519681E-1,4.3905047E-1,-6.80412E-1,-5.472095E-2,7.802859E-3,-2.8765237E-2,3.8746613E-1,-7.825412E-2,9.75928E-1,1.2535221E-2,-1.3177226E-2,5.7967347E-1,-1.9315105E-2,-4.2020943E-2,1.5617489E-2,4.7903676E-2,-2.1096325E-2,9.810751E-3,2.514255E-2,5.330623E-2,4.54506E-2,2.4111893E-3],"categories":[],"categories_nodes":[],"categories_segments":[],"categories_sizes":[],"default_left":[0,0,0,0,0,0,0,0,0,0,0,0,0,0,0,0,0,0,0,0,0,0,0,0,0,0,0,0,0,0,0,0,0,0,0,0,0,0,0,0,0,0,0,0,0],"id":32,"left_children":[1,3,5,7,9,11,13,-1,15,-1,-1,17,19,21,23,25,-1,-1,27,-1,-1,29,-1,31,33,35,-1,-1,-1,37,39,41,-1,-1,43,-1,-1,-1,-1,-1,-1,-1,-1,-1,-1],"loss_changes":[9.924024E1,3.4985428E0,6.935478E0,2.5030975E0,6.506159E0,1.1994859E1,4.4556427E0,0E0,4.725876E-1,0E0,0E0,8.893098E0,4.799099E0,6.5433054E0,2.4975185E0,1.0185051E0,0E0,0E0,1.7180778E0,0E0,0E0,4.885233E0,0E0,2.2108707E0,3.6531172E0,9.3383026E-1,0E0,0E0,0E0,2.6431313E0,3.2979214E0,6.1465645E-1,0E0,0E0,5.177641E0,0E0,0E0,0E0,0E0,0E0,0E0,0E0,0E0,0E0,0E0],"parents":[2147483647,0,0,1,1,2,2,3,3,4,4,5,5,6,6,8,8,11,11,12,12,13,13,14,14,15,15,18,18,21,21,23,23,24,24,25,25,29,29,30,30,31,31,34,34],"right_children":[2,4,6,8,10,12,14,-1,16,-1,-1,18,20,22,24,26,-1,-1,28,-1,-1,30,-1,32,34,36,-1,-1,-1,38,40,42,-1,-1,44,-1,-1,-1,-1,-1,-1,-1,-1,-1,-1],"split_conditions":[3E0,6E0,1.8048333E-1,1E0,2E0,3E0,3E0,-1.9672858E-2,4.216667E-3,1.6889445E-2,-5.2256048E-2,2E0,7E0,1.7E1,4E0,2E0,-5.669728E-2,4.5170788E-2,1E0,-6.737434E-2,-6.9468245E-3,5E0,5.4606326E-2,2.2635846E0,8E0,5E0,-5.472095E-2,7.802859E-3,-2.8765237E-2,2.3E1,1.2365E0,1.9877734E0,1.2535221E-2,-1.3177226E-2,4.5290194E0,-1.9315105E-2,-4.2020943E-2,1.5617489E-2,4.7903676E-2,-2.1096325E-2,9.810751E-3,2.514255E-2,5.330623E-2,4.54506E-2,2.4111893E-3],"split_indices":[1,3,6,16,1,10,19,0,6,0,0,19,16,21,21,26,0,0,12,0,0,21,0,15,21,27,0,0,0,3,6,12,0,0,12,0,0,0,0,0,0,0,0,0,0],"split_type":[0,0,0,0,0,0,0,0,0,0,0,0,0,0,0,0,0,0,0,0,0,0,0,0,0,0,0,0,0,0,0,0,0,0,0,0,0,0,0,0,0,0,0,0,0],"sum_hessian":[3.09354E2,9.59217E1,2.1343231E2,8.4015686E1,1.190601E1,3.739809E1,1.7603421E2,9.605443E0,7.441025E1,6.551047E0,5.3549623E0,2.467856E1,1.271953E1,1.09660126E2,6.637409E1,4.104671E1,3.3363537E1,1.3240233E1,1.1438326E1,6.213143E0,6.5063877E0,1.00732765E2,8.927361E0,3.1945852E1,3.4428238E1,2.5742378E1,1.5304334E1,5.103786E0,6.3345404E0,6.7647964E1,3.3084805E1,2.5968843E1,5.9770093E0,5.5958023E0,2.8832434E1,1.02732725E1,1.5469106E1,6.114594E1,6.502027E0,1.4451869E1,1.8632935E1,5.2112308E0,2.0757612E1,1.736249E1,1.1469944E1],"tree_param":{"num_deleted":"0","num_feature":"31","num_nodes":"45","size_leaf_vector":"1"}},{"base_weights":[-2.7063577E-2,-8.025271E-1,3.0594632E-1,-8.734396E-1,-2.2893167E-1,1.9747049E-1,5.313364E-1,-1.7120695E-2,-9.33656E-1,6.1287386E-3,-2.629337E-2,2.4967471E-1,-3.5147E-2,3.8138366E-1,5.449759E-2,-5.992284E-1,-5.2747857E-2,1.5567285E-1,4.957103E-1,6.117335E-1,1.4311494E-2,-3.5129392E-1,-5.1523365E-2,2.7829897E-1,-3.9895004E-1,1.22925274E-1,7.777962E-1,3.614994E-1,8.278276E-1,4.4071284E-1,-5.8859926E-2,-3.0835396E-2,3.0863183E-3,4.5852303E-3,2.7313609E-2,-6.33199E-2,1.6303008E-2,-9.239288E-3,2.604993E-2,4.707915E-2,9.932454E-3,3.437349E-2,-1.2160521E-2,4.817105E-2,2.5021253E-2,3.5082214E-2,-8.327503E-3],"categories":[],"categories_nodes":[],"categories_segments":[],"categories_sizes":[],"default_left":[0,0,0,0,0,0,0,0,0,0,0,0,0,0,0,0,0,0,0,0,0,0,0,0,0,0,0,0,0,0,0,0,0,0,0,0,0,0,0,0,0,0,0,0,0,0,0],"id":33,"left_children":[1,3,5,7,9,11,13,-1,15,-1,-1,17,-1,19,-1,21,-1,23,25,27,29,31,-1,33,35,37,39,41,43,45,-1,-1,-1,-1,-1,-1,-1,-1,-1,-1,-1,-1,-1,-1,-1,-1,-1],"loss_changes":[8.075726E1,3.6210556E0,5.245447E0,2.342308E0,1.2847064E0,7.1945558E0,5.4906216E0,0E0,2.37751E0,0E0,0E0,3.204195E0,0E0,4.8215456E0,0E0,1.9968815E0,0E0,7.192048E0,3.98073E0,1.5974379E0,1.2229754E1,1.7400076E0,0E0,4.242743E0,1.2527331E1,2.2870827E0,1.8883038E0,3.7210674E0,3.190384E-1,2.9219623E0,0E0,0E0,0E0,0E0,0E0,0E0,0E0,0E0,0E0,0E0,0E0,0E0,0E0,0E0,0E0,0E0,0E0],"parents":[2147483647,0,0,1,1,2,2,3,3,4,4,5,5,6,6,8,8,11,11,13,13,15,15,17,17,18,18,19,19,20,20,21,21,23,23,24,24,25,25,26,26,27,27,28,28,29,29],"right_children":[2,4,6,8,10,12,14,-1,16,-1,-1,18,-1,20,-1,22,-1,24,26,28,30,32,-1,34,36,38,40,42,44,46,-1,-1,-1,-1,-1,-1,-1,-1,-1,-1,-1,-1,-1,-1,-1,-1,-1],"split_conditions":[3E0,6E0,6.9136667E0,1E0,7.6042166E0,5.503922E0,1.8E1,-1.7120695E-2,4E0,6.1287386E-3,-2.629337E-2,8E0,-3.5147E-2,7E0,5.449759E-2,3.8E1,-5.2747857E-2,3.5E0,2E0,9E0,1.3E1,3.5611112E-3,-5.1523365E-2,4.8222777E-1,2.49E-2,4.5E0,6.28459E-3,1.8E1,3.34E2,1.14E2,-5.8859926E-2,-3.0835396E-2,3.0863183E-3,4.5852303E-3,2.7313609E-2,-6.33199E-2,1.6303008E-2,-9.239288E-3,2.604993E-2,4.707915E-2,9.932454E-3,3.437349E-2,-1.2160521E-2,4.817105E-2,2.5021253E-2,3.5082214E-2,-8.327503E-3],"split_indices":[1,3,6,16,6,6,21,0,27,0,0,21,0,9,0,28,0,3,8,3,3,6,0,6,15,3,15,16,0,22,0,0,0,0,0,0,0,0,0,0,0,0,0,0,0,0,0],"split_type":[0,0,0,0,0,0,0,0,0,0,0,0,0,0,0,0,0,0,0,0,0,0,0,0,0,0,0,0,0,0,0,0,0,0,0,0,0,0,0,0,0,0,0,0,0,0,0],"sum_hessian":[3.1077454E2,9.293996E1,2.1783456E2,8.224894E1,1.069102E1,1.4832484E2,6.950971E1,9.057821E0,7.319112E1,5.164542E0,5.5264773E0,1.4087961E2,7.445243E0,5.6126137E1,1.3383578E1,2.1062302E1,5.212882E1,1.03115425E2,3.7764183E1,3.4075882E1,2.2050257E1,1.4525625E1,6.5366774E0,8.485284E1,1.826259E1,1.6885395E1,2.0878786E1,1.7029186E1,1.7046696E1,1.6702953E1,5.3473024E0,8.542744E0,5.9828815E0,5.081305E1,3.4039787E1,7.9745755E0,1.0288015E1,9.825824E0,7.059571E0,1.5788018E1,5.090769E0,1.0975796E1,6.0533895E0,1.0680682E1,6.366014E0,1.1574255E1,5.128698E0],"tree_param":{"num_deleted":"0","num_feature":"31","num_nodes":"47","size_leaf_vector":"1"}},{"base_weights":[3.7798047E-2,-7.7458966E-1,3.6607817E-1,-5.858953E-1,-1.0170803E0,2.5798032E-1,6.0860854E-1,-7.012492E-1,-9.855145E-2,-2.2041246E-2,-5.5481046E-2,3.914421E-1,4.9971335E-2,3.8428476E-1,8.4002584E-1,-8.629702E-1,-3.685838E-1,1.0337901E-2,-1.9730093E-2,4.594876E-1,-2.935857E-2,-5.8704525E-2,2.2348696E-1,6.950778E-1,-1.1777286E-1,5.314371E-2,4.7101447E-1,-5.4695744E-2,-5.4290617E-1,1.7106317E-2,-5.2354928E-2,-2.0820023E-2,5.636238E-1,4.015893E-1,-1.0322942E-1,5.068726E-2,2.9417357E-1,-2.9669026E-2,2.6713533E-2,-9.6394354E-4,5.061074E-2,-5.0615616E-2,1.0886202E-2,4.0094692E-2,-3.740873E-2,2.1116031E-2,5.008417E-2,1.09131215E-2,3.9078068E-2,-4.135401E-2,1.22861E-2,-4.162827E-3,3.1897813E-2],"categories":[],"categories_nodes":[],"categories_segments":[],"categories_sizes":[],"default_left":[0,0,0,0,0,0,0,0,0,0,0,0,0,0,0,0,0,0,0,0,0,0,0,0,0,0,0,0,0,0,0,0,0,0,0,0,0,0,0,0,0,0,0,0,0,0,0,0,0,0,0,0,0],"id":34,"left_children":[1,3,5,7,9,11,13,15,17,-1,-1,19,21,23,25,27,29,-1,-1,